丁1_04_04 0.1947791 0.32364915 -0.08188975 0.53553295 0.0379864 -1.009241 -0.0690686 0.575937 -0.19158735 0.42582135 0.2493328 -0.14403495 -0.29014375 -0.1562333 0.1311025 -0.76176305 -0.33721 0.18315265 -0.22295785 -0.37862355
丈2_02_02 0.0917759 -0.65057535 -0.52938695 -0.17855055 0.47757225 -2.0787884 0.23591085 -0.25210145 -0.1925018 0.25763955 -0.53612415 0.7663565 0.448945 -0.6846031 -0.3909659 -0.51846775 -1.07448935 0.98221565 -1.824363 0.46359105
上1_06_01 0.19535735 0.1256147 -0.213609 0.21305525 0.55362875 -1.13271865 0.5593462 0.32473675 0.1301679 0.54945335 -0.41382285 -0.62822315 0.38854715 -0.17417025 -0.2389333 -1.54483055 0.282933 0.05105285 -0.54113995 -0.10734255
上1_06_04 0.61091515 -0.46719975 -0.4074163 -0.1131063 -0.35222435 -1.23396795 -0.0856508 0.45891035 0.68276385 0.4664006 -0.81595155 -0.1913544 0.31334135 -0.5555293 -0.21663385 0.0464506 -0.2867825 0.51425005 -0.94192105 -0.0307201 
上2_14_02 0.5507942 0.34023415 -0.1306331 -0.28915385 0.7418835 -0.9802876 0.76188545 0.5756887 -0.12111945 0.22430685 -0.45224135 -0.12947075 -0.72733815 0.09525665 -0.4406655 -0.4121228 -0.04963365 -0.1811546 -0.03537225 -0.30830095
上2_14_12 -0.00315105 -0.19231225 -0.21183855 -0.3211283 0.3488339 -0.5739592 -0.0200335 0.4185406 0.10815735 0.04107135 -0.2878684 -0.14369635 -0.23178425 -0.13674975 0.23590545 -0.03464815 0.07461495 -0.2615578 -0.5983224 -0.1464306 
上2_14_13 0.55428115 -0.10524135 0.3957561 -0.01371865 0.62045745 -0.66007735 0.0812544 0.5696266 -0.19896605 0.4896978 -0.6629837 -0.61307795 -0.2799148 -0.1422436 0.0111206 -0.0542177 -0.10050845 -0.26810745 0.06332655 -0.0351997 
上5_03_02 0.37885145 0.38090535 0.3078653 0.26493075 0.42700525 -1.0999467 -0.03187445 1.0013156 0.5985493 0.5674376 -0.808076 -1.29227065 -0.16788205 -0.61574455 -0.2408735 -0.70181165 -0.3230943 0.5026802 -0.3741327 -0.2870711 
下1_08_02 0.5919828 0.1057745 0.417127 0.25285935 0.5828406 -1.02305155 -0.0705586 0.4220217 -0.64678075 0.20197005 -0.09688935 -0.81478615 0.10330815 -0.21400835 -0.5633621 -0.65708055 -0.09954285 0.28117185 -0.7785241 0.12592115
下3_02_01 -0.21575565 -0.32318945 -0.1623502 0.2963814 0.7640152 -0.7859628 0.86596875 -0.12471125 0.13982835 0.30295405 -0.3271391 -0.14906255 0.0646954 -0.17182175 0.2328204 -0.6030313 -0.54660445 0.0987851 -0.2953169 0.0200703 
与3_05_01 0.60523105 0.1474495 -0.02023275 -0.21458755 0.1218998 -0.5514648 0.1037193 1.11902305 -0.2237424 -0.0571141 -0.10148535 -0.06862075 -0.5768037 0.20322045 0.27148415 -0.0550335 0.18055925 0.4641317 -0.1080564 0.21703035
专1_05_01 0.602117 0.6822589 0.01804495 1.07999835 0.77592325 -1.43572305 -0.84643645 0.44071905 -0.5572832 0.4574328 -0.20438005 -0.77186275 0.30924505 -0.6223681 0.0599715 -0.01911375 -0.37986495 0.0168374 -0.5644804 -0.8429311 
世1_07_06 0.46301085 0.002643 0.07142745 -0.16326555 0.9203615 -0.43679645 0.1435905 0.61340175 -0.0433173 0.4999404 -0.08919245 0.00837685 -0.11678205 0.27762 -0.36086595 0.24548125 -0.17302175 -0.2643653 -0.6530294 0.5239483 
丘1_05_02 -0.02348215 -0.35486345 -0.47842395 0.0812775 0.4115039 -0.4592011 0.33018415 0.21174255 -0.2908138 -0.3262276 -0.00942665 -0.47050015 0.13810445 -0.35354125 0.41108735 -0.48450835 -0.2523926 0.39592815 -0.04382675 0.34503135
丙1_03_02 0.2799446 -0.0821586 -0.5643345 0.7691106 0.74005295 -0.69023 0.43540635 0.241777 0.1624819 0.3818471 0.34255035 -0.10650285 -0.053319 -0.25133145 -0.2990816 -0.57480985 -0.16589205 0.28610635 -0.07174395 -0.0300515 
业1_07_01 0.41304745 -0.24176985 0.57238315 -0.17797975 0.9261004 -0.75048 -0.27224795 1.005943 0.21127065 -0.0686132 -0.46887115 0.62865335 -0.3577608 0.0821068 -0.7030462 -0.22484415 -0.2627829 0.15855495 -0.50688095 0.2456318 
业1_07_02 1.09688755 0.05327045 0.16474745 -0.23315275 0.52564865 -1.144221 -0.46788265 0.62693775 0.0644934 0.27301675 -0.1091068 0.6832145 -0.5088903 0.0489827 -0.19581685 0.10612695 -0.41345495 0.481408 -0.37922115 0.61073225
业1_07_04 0.0537973 -0.90918275 0.11708835 0.1553945 0.71737015 -0.4920261 -0.45181785 0.4039086 0.37969135 0.23048425 -0.08545545 0.52219135 -0.13472435 -0.98330115 -0.259054 0.56614715 0.520624 -0.26276405 0.0477912 0.13076525
业1_07_06 0.2400808 0.238375 -0.27517675 -0.25119845 0.61964645 -1.03573655 1.20513205 0.0194632 -0.10583245 0.17556665 -0.31897395 -1.28042375 -0.2329562 -0.44991945 0.5715708 -0.3214367 -0.80401365 0.7124029 -0.5456863 -0.43574175
丛1_05_02 0.20936865 0.3229919 -0.5191067 -0.0202584 0.33725115 -1.14687605 1.20060085 0.23952975 -0.19126215 0.16650255 -0.02756995 -0.38419815 0.2074537 -0.35222055 -0.0316352 -0.5728914 -0.06772725 0.25412975 -0.49521475 -0.0102925 
东1_04_01 0.09285685 0.5088184 -0.4440919 0.44972455 0.15669075 -1.1214794 0.48347495 0.3922588 0.49574355 0.32852795 -0.4806536 -0.75950105 -0.24648 -0.1709298 0.36550475 -0.80537545 -0.22039455 0.3649498 -0.4202765 0.02286955
严1_05_02 0.57914785 0.0833453 -0.75967725 -0.2854953 0.01757955 -0.57923875 0.3634358 0.2710222 -0.74721695 1.3623894 -0.0266318 -0.92652815 0.37569905 -0.48242965 -0.9202379 0.20572475 0.5668364 0.11685405 -0.41665695 0.53143075
个2_02_02 0.2470784 0.28430105 -0.18399775 0.61154935 0.2083015 -0.48164795 -0.1678424 0.40420035 -0.562565 0.4372243 0.07124575 -0.38408025 0.00654965 -0.62637645 -0.2414931 -0.2877859 0.25173025 0.32002245 -0.43721425 -0.040946 
丫1_03_01 0.36654545 0.01816255 -0.18357145 -0.1098372 0.8169166 -0.9398463 0.7504083 0.0550845 -0.75503465 0.15096885 0.5434169 -0.5894241 0.0068754 0.1441385 -0.09518295 -0.68216015 0.2851592 0.5142455 0.32252725 -0.02790475
中1_02_02 0.9011496 -0.36683625 -0.19247655 -0.22040265 0.176584 -0.48274705 0.51594175 0.43283195 -0.22192 0.2699802 -0.24567165 -0.05180545 -0.2704126 -0.30673105 -0.083641 -0.07362085 0.41896805 -0.61213385 -0.4572585 0.03352345
中2_11_01 0.62053985 0.238801 -0.191631 0.33035535 0.2602197 -0.84932005 0.474373 0.71536825 0.01334715 0.47602445 -0.33717115 -0.31565415 -0.24888275 -0.6163406 0.0947254 -0.754683 0.531438 -0.33700425 -0.32385655 -0.28210275
丰1_03_01 0.2084363 0.0563974 0.02776965 0.13986405 0.142705 -0.80109765 -0.18618455 0.23874535 -0.46433535 0.457231 0.23509495 -0.35019005 -0.3510977 0.2601456 -0.47318175 -0.4070965 0.0853944 -0.0729503 -0.32953285 0.2819048 
串1_09_08 0.34989235 -0.1625062 0.32861205 -0.1705027 -0.2816107 -0.98834175 -0.14932415 0.51316555 -0.2142083 0.42712265 -0.342907 -0.5029863 -0.231513 -0.49701815 -0.1456957 -0.7385768 -0.32403565 -0.42062085 -0.30160625 -0.2437647 
主1_13_06 0.38849615 -0.24704335 0.28681395 0.58279825 0.41051135 -0.76089515 -0.14901835 0.4842359 -0.36666685 0.78729795 -0.0446205 -0.6148778 -0.70223465 -0.83248475 -0.2735504 -0.47045255 -0.0212674 0.2897561 -0.226201 0.2969278 
主1_13_07 0.1377769 -0.0862442 -0.19625275 -0.2565368 0.45638425 -0.44547925 0.22046265 0.66602585 -0.6108923 0.38593555 0.04941995 -0.7654376 0.07790885 0.4449687 -0.2051447 0.2510508 -0.36973395 -0.1665058 -0.3341154 -0.1830749 
丽1_02_02 0.23864775 0.15547705 -0.22872245 0.91498775 0.1218958 -0.86083465 -0.121525 0.3931818 -0.23675685 0.20564325 0.1334274 -0.7609766 0.1525315 -0.2700291 -0.16641815 -0.23633235 0.1390457 -0.1055434 -0.27091965 0.3695014 
丽2_02_01 0.38583285 0.02255 0.60534255 0.1079703 -0.12432755 -1.06036465 -0.34345115 0.6696387 -0.2747762 0.8136626 -0.3874302 -0.5397623 0.3982579 0.07055175 -0.27163595 -0.44207095 -0.11068275 0.0361567 -0.54634265 0.57872445
义2_01_01 0.09382855 -0.8216901 0.1571565 0.1745035 0.7725548 -0.4397189 -0.3260921 0.32357895 0.3758732 0.36245735 -0.15231045 0.27154945 -0.187125 -0.82677565 -0.178753 0.4073317 0.4085939 -0.32799625 -0.1170857 0.25179305
乌2_03_02 -0.2434558 -0.34263085 -0.4840256 0.36064975 0.28347835 -1.0507032 0.1059379 0.29617045 -0.23254805 0.78285645 0.53938615 -1.0304899 -0.40884885 -0.236501 -0.2397481 -1.25070125 0.29285465 0.07642405 0.22247265 0.04755845
乐1_04_01 0.3438718 -0.01371255 0.00090225 -0.23321625 0.4399274 -0.72534515 -0.5133397 0.0197864 -0.3511276 0.29444665 -0.0201195 -0.5210948 -0.19441095 0.19927965 -0.56939035 0.07098295 0.26526645 -0.12638475 -0.2261601 0.32848035
乐1_04_03 0.8301356 0.17844015 -0.1015117 -0.05349465 0.82781415 -1.0698459 0.32127775 0.2067943 -0.13383875 0.12723435 -0.6342965 -0.59179 0.13664735 -0.2477184 -0.09247935 -0.71359805 0.05049285 0.28895005 -0.6389906 -0.60165425
乐2_02_01 -0.38108645 -0.6952472 0.3885523 0.37904585 0.2893299 -0.74628025 -0.4451337 0.5108714 0.0919561 -0.10423915 0.16685075 0.03742295 -0.08123875 -0.18243105 -0.3258972 -0.2015038 -0.3070393 -0.1716632 -0.09551895 -0.02210405
乡1_04_01 0.35212155 -0.0974479 -0.320664 0.20840245 0.4711816 -1.38658475 0.4788093 -0.3591871 0.53118975 -0.1139812 -0.595645 -0.50518325 0.41944835 -0.55386205 -0.08313075 -0.3902737 -0.9002821 -0.0393897 -0.7579689 -0.6022237 
书1_06_03 -0.16471565 -0.5047726 -0.38076195 0.37388585 0.11419715 -0.61145745 -0.3891481 0.7945508 0.05362335 0.60476035 0.47182295 -0.4995505 -0.4657062 -0.3472547 -0.4476183 0.2405571 -0.51476335 0.1145565 -0.1501722 -0.13852175
乾1_03_02 0.30747295 0.0801938 -0.03144375 0.2519606 0.29170135 -1.07634125 -0.31641005 0.3832652 0.0929668 0.78248585 -0.5228623 -0.4356184 0.1795587 -0.98016205 -0.2877517 -0.7324448 -0.26441105 0.5666516 -1.21882305 0.1362693 
了2_01_01 -0.1947252 -0.43928685 -0.53479275 -0.6889326 0.29812495 -0.3724707 -0.4603079 1.1713501 -0.273022 -0.2097564 0.45812275 -0.5124515 -0.6085356 -0.3430173 0.29298095 0.4105129 0.27527845 0.1777986 0.0595301 -0.61354905
事1_06_01 0.071069 -0.5090647 0.14119315 -0.09431485 0.28974045 -0.6906496 -0.3339688 0.55639355 0.189719 -0.00185145 -0.11749635 0.9575091 -0.36722825 -0.20130065 0.0112927 0.11600235 0.4174758 0.5821609 -0.1297679 0.20804305
亡1_05_03 0.40205745 -0.07812925 -0.60575265 -0.60488585 0.57078095 -0.65636065 0.61637135 0.86606735 -0.03926255 0.58284075 -0.0141625 -0.1226545 -0.47223625 -0.1072805 -0.12290265 -0.12345435 -0.16686345 -0.0536197 -0.677539 0.1476136 
产1_06_02 1.0760257 -0.0524789 -0.3033458 0.4161591 0.7688946 -0.42986445 0.3063371 0.86853615 -0.20590305 0.21498745 -0.1617141 -0.24486205 -0.33383645 -0.02983505 0.13983275 0.02189025 0.3988131 0.2664948 -0.0304671 0.65430965
亨1_02_01 0.12507995 0.1181691 -0.386648 -0.078662 -0.1566502 -1.0987795 0.0046983 0.45630315 0.13190115 0.45715725 -0.26294835 -0.61509195 0.0221118 -0.08900045 -0.3789317 -0.2917791 0.27424805 -0.1934922 0.06915645 0.0561742 
亭1_03_01 0.07445675 0.01078935 -0.46579825 0.53176595 0.1726387 -0.9199611 0.25626935 0.6836795 0.5855364 -0.07529265 -0.3282818 -0.1333792 0.0821773 -0.4444092 -0.05346225 -0.50830015 -0.2040401 0.0806924 -0.11099505 -0.464134 
亭2_01_01 0.1681957 0.25554845 -0.28133015 -0.2001678 -0.4430665 -1.05584535 -0.10519185 0.322259 -0.54206775 0.87595865 -0.15202635 -0.65323105 -0.2983905 -0.1590695 -0.4411535 -0.26714085 0.53503835 0.2741933 -0.30922165 0.0867234 
亮1_07_01 0.4604284 0.1646108 -0.28999035 -0.06452685 0.15346645 -1.2239893 -0.1783252 0.24074045 -0.5837348 1.0826625 0.113588 -0.79453485 -0.036398 0.0451985 -0.69519545 -0.637538 0.72703515 0.32587515 -0.03463005 0.48092955
亲2_10_05 0.6710492 -0.13433 0.62439275 -0.65479835 0.8873463 -0.92359075 -0.42427885 0.84317 -0.37475035 0.36514075 -0.24936605 0.6440373 0.1216073 -0.0786684 -0.41796785 -0.3839641 -0.7099821 0.29249315 -0.2585153 0.30710545
亵1_02_01 0.30500125 -0.0134127 -0.1908908 0.36464045 0.0481174 -0.7237825 -0.57553445 0.4572024 -0.403279 0.8799108 0.01242015 -0.9054741 -0.0024668 -0.45661735 -0.7305366 0.06998915 0.07352065 0.52999745 -0.4690937 0.15007745
人1_09_01 0.21254565 -0.3474952 0.16188115 -0.1474227 0.34119345 -0.77711365 -0.38915425 0.08146065 0.31076815 0.22026425 -0.4369496 -0.01952725 0.0239336 -0.1266308 -0.66205915 -0.0414047 -0.18430535 0.30492715 -0.5390652 -0.0560482 
人1_09_03 -0.139998 -0.20443135 0.0289254 -0.09913355 -0.27803925 -1.7319283 -0.2898952 -0.05252535 -0.05513625 -0.1892331 -0.21446185 -0.112268 0.4896716 -0.34410565 -0.23062245 -0.17275695 -0.3949069 0.68050855 -0.57633985 -0.01502755
人1_09_04 0.2712221 -0.4453842 -0.06608295 -0.1526864 0.36360045 -0.845221 -0.3518844 0.022993 0.30687355 0.3944371 -0.26340915 -0.00810785 0.16650125 -0.40946025 -0.7509145 0.0349469 0.08616825 0.27209515 -0.470585 0.06778325
人1_09_08 -4.56298500e-02 -2.23808900e-01 -2.87880400e-01 3.82639450e-01 -2.20587900e-01 -5.43517650e-01 -4.98975550e-01 7.84720900e-01 3.25689900e-01 2.34583900e-01 -3.57009450e-01 -5.05210450e-01 2.85545600e-01 -1.78149600e-01 -2.64944500e-01 -2.88554750e-01 -5.78600000e-04 -1.75662500e-01 -1.47679300e-01 -3.18741050e-01
仄1_02_01 0.23969 -0.23368045 -0.8028603 -0.0910618 1.406123 -1.19177055 0.89071425 -0.3448126 -0.31270825 0.38808295 0.3605949 -0.49771555 0.44106435 0.0670234 0.0170131 -0.24527185 -0.46987275 -0.3902541 0.3886781 -0.01294085
仇1_02_01 0.2268957 0.1766699 -0.0737405 0.1642142 0.1077355 -0.88366815 0.27756955 0.4701117 0.15700705 0.22881185 -0.70428885 -0.23264275 0.2764177 0.1809431 -0.4850538 0.09932795 -0.14452565 0.30372375 -0.35362175 -0.0667036 
介3_01_01 0.8022199 -0.04271725 -0.2476604 0.2595575 -0.06094485 -0.43312795 -1.13831965 0.69997355 -0.53338515 1.0206361 0.1153174 -0.60335445 -0.23927195 -0.1062076 -0.1825237 0.1707944 0.07270005 -0.04778615 -0.17729505 0.1641664 
仑1_01_01 -0.04811875 -0.17458315 0.1142513 0.6566606 0.28873025 -0.5737678 -0.3016326 0.91169585 0.11963725 0.1792993 -0.06201235 -0.41716935 0.16522125 -0.72955085 -0.02755155 0.08554745 -0.7628292 0.35866475 -0.21179555 0.05650605
仔1_01_01 0.3762019 -0.1045894 0.33919275 0.58248915 0.3048644 -0.6460088 -0.31165145 0.6433397 -0.12677725 0.0218167 -0.0848935 -0.34782245 -0.112334 -0.41308615 -0.1997074 -0.31560945 -0.3319892 0.3580669 -0.1462489 -0.0993054 
仔3_01_01 0.47564975 -0.04543245 -0.05888705 -0.1531771 0.34514475 -1.5837299 -0.69066525 0.2180574 -0.05467355 1.01488545 -0.34223075 -0.26998865 0.255578 -0.7314098 -0.5987406 -0.54994055 -0.31238065 0.12864655 -0.81201575 0.1042972 
仡1_02_01 0.5134176 0.08351045 -0.041198 0.03315265 0.12608075 -1.1249294 -0.26160205 0.0041325 -0.4012562 0.5854133 -0.3894825 -0.6221365 -0.699408 -0.2394392 -0.4212273 -0.53539075 -0.153933 0.3941882 -0.4862629 -0.03820325
仡2_01_01 0.42518175 -0.4989298 -0.14219405 0.4089751 -0.08539995 -1.0454729 -0.09432855 0.2118717 0.4183852 0.20789675 -0.2533848 0.1549711 -0.1144298 -0.47793205 -0.25427645 -0.01288185 -0.4606217 0.34246065 -0.6812475 -0.17493335
令2_01_01 0.19104835 0.02303505 -0.08944845 0.47585855 0.53082645 -0.9000315 0.6574614 0.8096839 0.3625588 0.63194215 0.03273445 -0.6827592 0.00891945 -0.4566969 -0.3621266 -0.89002925 0.39653305 -0.2811684 0.06247725 -0.25953865
令3_02_01 0.25862915 -0.18993445 0.05078455 0.0285661 0.12824495 -0.90431785 -0.6453592 0.0815923 -0.32025585 0.78400095 -0.23661465 -0.4821218 0.1956461 -0.5057154 -0.35315405 -0.12762915 0.0118252 0.25204695 -0.1164214 0.10546005
仪1_05_01 0.2956982 -0.14611495 0.5064104 0.05278915 0.6548539 -0.65033885 0.0077095 1.0539686 -0.27122615 -0.0688721 -0.08780965 0.07955815 -0.2936114 0.0141445 -0.28318875 -0.3161447 -0.3186573 0.33224285 -0.3687107 0.11363445
仪2_01_01 -0.3004096 -0.23019725 -0.55984035 0.5611258 0.15377865 -0.89469085 0.81178915 0.6663063 0.3332987 -0.2646583 0.2147965 -0.6051536 0.4833109 -0.44598635 0.42615225 -0.26845285 -0.18543035 -0.2231715 0.0952889 0.0024921 
仲1_04_01 0.8523438 0.30270515 0.4809193 0.27908605 0.3577746 -1.15945245 -0.5145212 0.77412825 0.04653135 0.9273679 -0.82142495 -0.43488975 0.0080145 -0.3077773 -0.33003435 -0.9504219 -0.03237075 -0.1837566 -0.95239075 0.1875819 
件1_04_02 -0.2608408 -0.16012715 -0.4372462 0.29478925 0.32112195 -0.6774674 0.88366835 0.7416039 0.3268084 0.57308565 0.12467365 0.0020133 0.6054242 -0.4206044 -0.2316966 -0.3716777 -0.3591437 0.410367 -0.22877235 -0.08154425
价2_04_01 0.1237151 -0.48287825 0.13705975 0.1395919 0.4550646 -0.44465215 -0.0755403 0.96768435 0.4244701 0.07061955 -0.14656475 0.10238095 -0.29501105 -0.3895767 0.04295995 0.16769575 -0.16691085 0.06139415 0.193423 0.33648825
伍1_04_01 0.2295911 -0.06723895 -0.4132146 0.4392457 0.31722595 -0.9102262 0.72742945 0.3159811 0.4566577 0.2264956 -0.2053073 0.11822715 -0.5084731 -0.4905575 -0.5303805 -0.1773411 -0.2781137 0.2676532 -0.50704275 0.1455619 
伏1_07_04 -0.0226416 -0.52326575 0.0864034 0.4997311 0.3911321 -0.90382465 0.6786831 0.12607895 0.0378559 -0.08298895 -0.399452 -0.1769094 -0.22500395 -0.3273182 0.1989238 -0.9093001 0.1833089 -0.0779972 -0.0502838 0.0100354 
众1_03_02 0.04053735 -0.15306855 -0.03721365 0.15123145 -0.31179835 -0.7706647 -0.0218732 0.2852081 -0.21299465 0.0413084 -0.22404415 -0.55583625 0.1380578 0.14050135 -0.14480025 0.18457455 -0.29492525 0.134296 -0.31682605 0.25393965
会2_11_02 0.73689165 -0.2790878 -0.1732162 -0.3391935 0.1927577 -0.48746955 0.4194456 0.53286075 -0.18458565 0.3012957 -0.11293725 -0.0378883 -0.29807935 -0.2656482 0.0153312 0.08348415 0.5226825 -0.44427795 -0.3640344 0.01544155
伟1_03_01 0.30405425 0.4954766 0.3388319 0.61696735 -0.15493825 -1.2973925 0.4418745 0.6926402 0.4982399 0.24426555 -0.7262218 -0.58049285 -0.3878625 -0.86198535 0.2758333 -0.49577 -0.12145205 -0.06874245 -0.7062475 -0.95056715
传1_08_02 -0.22270575 -0.16632515 -0.23434095 -0.47012955 0.27166425 -0.4754972 0.06844935 0.9397725 -0.21420215 0.23757745 0.3880257 -0.75738205 -0.5440136 0.11166345 0.24990595 0.04094035 -0.218 -0.0410137 -0.1242634 -0.2340512 
传1_08_05 -0.23195575 -0.23888865 -0.27786045 -0.5650647 0.2892266 -0.3795308 -0.08170385 1.09161425 -0.2192554 0.15458465 0.41672655 -0.71846295 -0.4779776 0.02138985 0.16808475 0.1446259 -0.1067338 0.0104121 0.00753335 -0.41477455
伢1_01_01 -0.0733919 -0.0834981 -0.09530795 -0.0802139 -0.2392014 -1.7019482 -0.24300705 -0.1505317 -0.1804988 -0.14836685 -0.1002296 0.03592 0.41317675 -0.38648285 -0.3215645 -0.1134358 -0.3594531 0.69487895 -0.66124885 -0.0137787 
伤1_05_03 0.13481875 -0.0878043 0.1494738 -0.3079362 0.36240415 -1.12538045 -0.73358765 -0.4197881 -0.8497982 0.0096623 0.35285675 -0.53343825 -0.1208448 -0.1277413 -0.7796046 -0.02374805 -0.1666567 -0.4484742 -0.4301697 -0.05840885
伤1_05_05 0.7596388 -0.2492755 -0.0864267 -0.08792975 0.33808315 -0.72540245 -0.1968433 0.60645215 -0.4145418 -0.07812585 -0.24437365 -0.16670435 0.2575751 0.0236031 -0.3005864 0.8407296 0.21382335 0.08156775 -0.4328643 0.19514475
伪1_02_01 -0.0757997 -0.30485665 0.0736286 0.04520095 0.42773455 -0.5221924 -0.0933488 0.4482179 -0.1662421 0.42042245 0.05704585 -0.7709403 0.41203035 -0.69847375 -0.0992637 -0.17911055 -0.63497725 0.14781885 -0.5930766 0.1093065 
伪1_02_02 0.5113773 0.1332621 0.04179325 0.7215666 0.15029525 -0.84960505 -0.04301245 0.7811774 0.0712757 0.0479093 -0.2295017 -1.0384361 -0.2251268 -0.2698274 -0.62470285 -0.4443392 -0.26739515 0.26219395 -0.643827 -0.007839 
估1_01_01 0.28688035 -0.3069288 -0.15405535 0.62172485 0.60367795 -0.91691125 0.71501175 0.22729125 0.2614679 0.09632675 0.03257585 -0.029165 -0.3003009 -0.07712825 -0.6329359 -0.3790026 -0.4352673 0.0253043 0.0087702 0.00960615
伻1_02_01 0.22497885 -0.4545056 0.1511019 -0.26002795 0.3597304 -0.2721244 0.3432516 0.55629285 -0.1471108 0.08036515 -0.01013495 -0.91125305 -0.0759426 -0.16054135 0.23494225 0.3931127 -0.30886815 -0.17784945 -0.89438855 0.16393645
位1_06_01 0.7172013 -0.23240125 -0.23175925 0.38355745 0.45997665 -1.1993804 0.62939675 0.4867926 0.0889955 0.12492745 -0.22618735 0.18609405 0.02323595 -0.3248852 0.2563571 -0.15211455 -0.0752551 0.3784274 0.25936555 0.08479815
作1_07_03 -0.2641572 -0.32654085 -0.3043985 -0.65482075 0.2580167 -0.3753889 -0.1347812 1.0375288 -0.21451825 0.0455439 0.45723585 -0.6406602 -0.5033574 -0.0356328 0.26278905 0.3211731 -0.00978415 0.0379253 0.0279507 -0.40184905
侁1_01_01 -0.15251535 -0.2873091 -0.32348465 -0.0295933 0.8070456 -1.22389825 0.70890205 -0.61709225 -0.9431974 0.2100572 1.01750405 -1.09733595 -0.262484 -0.03954985 -0.90389225 -0.7979922 0.5326175 0.3907461 -0.46541215 0.70710455
例1_05_01 0.09211035 -0.7851636 0.11209095 0.18349855 0.6447975 -0.47176195 -0.2307006 0.3081874 0.3176304 0.3999376 -0.11089555 0.20622335 -0.1749387 -0.59361885 -0.2234039 0.32438945 0.34822475 -0.33270725 -0.20270065 0.27094735
侦1_01_01 -0.07411535 -0.044119 -0.1986806 -0.53937515 0.27389845 -0.48343135 -0.01170815 0.94960435 -0.3231313 0.1984575 0.55619285 -0.699782 -0.49491885 0.1442741 0.14639 0.15704205 -0.1203941 -0.0528483 -0.1402455 -0.4885355 
便1_05_02 0.4751911 0.16405885 -0.2047411 -0.15552445 -0.0032164 -0.53919915 0.49663155 0.45245915 -0.39367865 0.4448581 -0.1691782 -0.63077785 -0.24856685 -0.04319145 0.08179295 0.150307 -0.198315 0.11163755 -0.22241055 0.1335171 
便1_05_03 0.4538286 0.07335115 -0.236461 1.09358545 0.1748517 -1.2157013 -0.10547575 0.418256 0.0450256 0.47081665 0.2286315 -0.7096944 -0.6216472 -0.58234095 -0.28756475 -0.49036985 -0.32398655 0.25114725 0.0450215 -0.51119375
俊1_03_02 0.40219145 0.25994625 -0.17384815 0.14981805 0.1638666 -1.30831855 -0.5682474 0.68429145 -0.45584265 0.9121801 0.11985105 -0.87838935 -0.0561893 -0.35714275 -0.59365775 -0.63250775 0.09465535 0.2458381 -0.4322497 -0.0977545 
俑1_01_01 0.6002019 -0.38995715 -0.15079145 0.25544635 -0.126652 -1.03756465 0.2026894 0.54680065 0.37281725 -0.0617699 -0.60138075 -0.46791665 -0.1487152 -0.30046075 -0.7261661 -0.6046918 -0.15169505 0.5907744 -0.96761995 -0.070355 
俗1_04_01 0.37643495 -0.52240855 0.38032915 0.5022025 -0.04796705 -0.4075453 0.1337697 0.81481765 -0.15900425 0.301002 -0.22170595 -0.63943445 0.22352875 -0.47726555 -0.0628356 0.4554 -0.53342645 0.7007023 -0.5178361 0.3890498 
信1_11_02 0.5731728 -0.0176681 0.86458785 -0.1561363 0.17979905 -0.585832 -0.23020385 0.5626546 -0.41359465 0.50068445 -0.2545922 0.341201 -0.1805681 0.20082405 -0.54479645 -0.2172911 -0.4474596 0.2105601 -0.2403036 0.21105005
信1_11_08 -0.10158725 -0.68680305 -0.3674867 0.32336245 0.03846005 -0.63423665 -0.41297445 0.7924167 0.0045643 0.6387182 0.55706415 -0.4974707 -0.52403995 -0.34890945 -0.37175745 0.28397705 -0.55194305 0.0734711 -0.06804655 -0.06062535
俦1_02_01 0.38163155 -0.48752645 -0.205951 0.24185625 -0.23326705 -1.04370535 -0.09928475 0.31857375 0.4781662 0.1951525 -0.19492855 0.1042699 -0.031375 -0.45336 -0.3215091 0.00799175 -0.49174015 0.2817166 -0.6055442 -0.1526529 
俶1_02_02 0.640325 -0.24088515 0.01941485 0.11046245 0.7916061 -0.60345805 -0.50129745 0.5932792 -0.20575875 -0.6048204 -0.4333894 -0.3081277 0.1790866 -0.10739085 -0.2217406 1.27456375 0.22222615 0.2733324 -0.42324285 0.2667263 
倏1_01_01 -0.18430415 0.36231965 -0.32299405 0.02333205 0.1210581 -0.6449823 0.1284817 0.8418498 -0.1245822 0.3255536 -0.7320558 -0.33915215 0.47173505 -0.1041754 0.248801 0.1553622 0.5274781 -0.06003135 0.31396585 -0.07883565
倒2_04_02 0.2902559 0.391117 -0.80684 -0.61380935 0.68121035 -0.57334505 0.81015185 0.4102378 0.16972085 0.4157416 -0.1189372 -0.1270345 -0.4322334 -0.3212954 -0.4987073 0.2515952 -0.13467855 -0.33024785 -0.52110555 -0.06250865
候2_03_02 0.8095679 -0.07991235 -0.35216495 0.4393232 0.104655 -0.9283096 0.1389851 0.51822425 0.12282025 0.3227873 -0.1167326 0.29728055 -0.66185585 0.1176394 -0.3737617 -0.0862295 -0.09092885 0.00946015 -0.2116256 0.4094157 
候2_03_03 0.1156949 -0.92799585 0.1857525 0.15623725 0.78326055 -0.48770735 -0.3830042 0.22974105 0.35861895 0.2397349 -0.17877725 0.50722755 -0.2348937 -0.99580905 -0.13935125 0.4838042 0.4834833 -0.35444715 -0.05353235 0.0857106 
倚1_04_03 0.31254285 0.2772607 -0.50299775 0.60352035 0.05257375 -0.75210525 -0.55845055 0.0391992 -0.56636815 0.37518175 -0.3760858 -0.8761871 0.0639482 -0.35802215 -0.18884455 0.35209705 -0.06990395 0.2682258 -0.2192285 0.23731995
借2_03_03 0.6613237 0.312334 0.88400115 0.12841375 0.6103504 -0.62566345 -0.21364445 1.10556055 0.1909364 0.9810858 -0.5762362 -1.36082255 -0.46109535 -0.5208113 -0.11641795 -0.11590805 0.35531875 -0.05117325 -0.5047669 0.3117321 
倥2_02_02 0.1310289 -0.19067595 -0.85904755 0.2444852 -0.19318835 -1.1774868 -0.0618244 0.0251932 0.1607039 0.441111 -0.3077641 -0.4382186 -0.14557555 0.1129194 -0.29887025 -0.46439275 0.0906735 0.23666815 -0.59810545 0.2124998 
倦1_02_01 0.0324695 0.1957286 -0.83728875 -0.15412975 0.9459304 -2.29985425 -0.25824025 -0.3636404 0.09555795 0.37885045 -0.34568615 -1.52974695 -0.2985799 -0.2300583 0.0959614 -1.0972872 0.15736935 -0.0363181 -0.12617175 0.26629195
值1_06_04 0.00938365 0.45587615 -0.0507146 -0.4621524 0.21166195 -0.9485822 0.4802464 0.35566815 -0.1542724 0.28168985 -0.3969908 -0.9633937 -0.2310575 0.1067567 0.03395955 -0.3082237 -0.574543 0.310973 -0.37635005 0.0606117 
值1_06_06 0.5317616 -0.05903235 -0.4285566 -0.4605343 0.4556475 -0.739101 0.0598703 0.6362527 0.19773175 -0.17100065 -0.29024355 0.1679503 -0.4409778 0.01458455 0.0472491 0.49237035 0.0684038 -0.12713305 -1.1451293 -0.21018555
假2_05_01 0.01781505 -0.41582705 0.1041698 -0.28686495 0.3103891 -0.47459005 -0.2401059 0.42041565 -0.19738225 0.78673095 -0.1425952 -0.34205885 -0.1074212 -0.19366025 -0.30769285 0.05481775 0.1678167 -0.4776042 -0.19487625 0.2555191 
偕1_01_01 0.609889 0.49723405 -0.34293565 -0.0176715 0.34162195 -0.75882165 0.17841325 0.7211706 -0.6843246 0.12898525 0.3689937 -0.3069752 -0.4296529 0.3663799 0.30480525 0.3001511 0.5715408 0.1898456 -0.1224841 0.18193965
健1_04_03 0.3468342 -0.18067265 -0.1395906 -0.15195135 0.2011407 -0.5859688 0.07105325 0.44397625 -0.3889027 0.0423713 -0.2195612 -0.29392045 -0.0196319 -0.12827055 -0.0782744 0.273637 0.23657395 0.03024975 -0.4003907 0.2030729 
像1_06_01 -0.2731737 -0.4459548 -0.3998983 0.2907564 0.2526413 -0.39338775 0.1200213 0.86506145 0.34893485 0.2625056 0.1753133 -0.2127474 -0.1641974 -0.1220366 -0.0157258 -0.42600285 0.08268095 0.47352705 0.16998725 0.02377565
僧1_02_01 0.5614977 -0.3126865 -0.1036234 0.32136745 -0.08489805 -1.03643055 0.21784515 0.49862565 0.3127542 -0.0478982 -0.53387845 -0.39104675 -0.16958525 -0.2467253 -0.73439525 -0.5673321 -0.16185035 0.5366711 -0.8498506 -0.01492665
僵1_03_02 -2.60975500e-02 5.28018500e-02 6.40030500e-02 2.31012200e-01 5.87501000e-01 -1.21841800e-01 -5.22748900e-01 8.19289750e-01 -3.06577450e-01 3.74766450e-01 7.05550000e-04 -1.79655950e-01 -3.27590150e-01 -1.56008750e-01 1.69175500e-02 -2.17867450e-01 2.53782050e-01 1.14346850e-01 -2.99970500e-01 2.19171850e-01
僻1_03_01 -0.00678525 0.0410123 -0.3461704 0.5347295 -0.07541365 -0.70043555 -0.247872 -0.271854 -0.1581928 0.444219 -0.3108674 -0.0763716 -0.24973015 -0.2897864 -0.1325379 -0.8031914 -0.12408875 0.46914075 -0.60562235 -0.43773785
元1_05_01 0.2753235 0.4622854 -0.55006365 0.5401992 0.314138 -0.67810635 0.0058675 0.7974189 0.33049775 0.34679365 -0.5130607 -0.29177415 -0.0863906 -0.4844145 0.00771285 -0.6126451 -0.2980883 0.4296384 -0.63447145 0.03696705
兄1_03_03 -0.21255325 -0.22703955 -0.06728155 -0.49519265 0.4879926 -0.98294675 0.01089605 0.0836496 0.2442767 0.5107335 -0.69984935 -0.0119874 0.2372408 -0.52861175 -0.21337605 -0.2568618 -0.68051255 0.3236359 -0.55915235 0.0753132 
先1_07_01 0.19283525 -0.60692545 -0.0476987 -0.07743075 0.25161655 -0.6050548 0.0367097 0.75984825 -0.0796284 0.19643855 -0.11613375 0.1116419 -0.1463203 -0.27112775 -0.40803205 0.03495315 -0.42347025 -0.2622869 0.1316178 0.06065955
光1_12_02 0.11071895 -0.4073854 -0.3163246 0.05917905 0.48395115 -0.672523 0.390325 0.49239145 -0.04830005 0.1620123 0.1273459 -0.1767808 -0.22317045 -0.20088865 -0.0521526 -0.28408925 0.19832205 -0.17372065 0.5611473 0.22698445
全1_05_03 0.49366295 0.1974112 -0.1567575 0.4222231 0.53833945 -0.2714089 -0.3691139 0.65646395 -0.2317281 0.59282725 -0.04303665 -0.5038638 -0.182981 -0.172277 -0.10827275 -0.2379681 0.45555005 0.25192015 -0.19657365 -0.0167106 
公1_07_01 0.25260685 -0.4400752 -0.12979775 -0.0985049 0.05043335 -0.8421275 -0.11945545 0.4065102 -0.0733414 0.4895334 -0.40484985 -0.7629592 0.17936035 -0.1081558 -0.44049545 -0.06276585 -0.78780345 0.3741525 -0.5097174 0.2194869 
兰1_04_01 0.272407 0.124238 -0.8830861 0.8551113 0.54411805 -1.3111541 0.5427858 0.6002137 0.41612585 0.4465638 0.18731505 -0.25877885 0.46205585 -0.39119115 0.0287117 -1.0355367 -0.252168 0.3021165 0.305474 -0.6180596 
兵1_05_02 0.0784042 0.03060255 -0.483926 0.45288475 0.3781653 -0.82728545 0.6217458 0.44173515 0.58121485 0.08095595 -0.3618323 -0.05312805 -0.5055778 -0.54198925 -0.638977 -0.3123312 -0.49895905 0.43790245 -0.4865369 0.0098018 
具2_03_02 -0.1081898 0.4033174 -0.44466215 -0.16839065 0.7014906 -1.0696567 1.1806984 -0.0985409 -0.04275895 -0.15679285 -0.5622338 -1.2990532 -0.55700205 -1.256819 0.7476418 -0.1419095 -0.78580285 0.9820147 -0.87835075 -0.87202035
典1_06_01 0.3582563 -0.54102605 0.4046939 0.4998308 -0.08550775 -0.46460025 0.16198795 0.74007895 -0.11226105 0.34398365 -0.19739355 -0.7162113 0.19135125 -0.505377 0.04329605 0.48369315 -0.6192393 0.7222332 -0.6262304 0.47273325
养1_11_05 0.24324595 0.1366579 -0.0361786 0.15309915 0.74275095 -0.54109535 0.5641682 1.04895235 -0.0392167 0.23310745 -0.23867005 -0.1104137 -0.2911442 -0.2702836 0.34991745 0.0183698 -0.07035165 -0.05926375 -0.27664735 0.3261592 
冇1_02_01 1.0145067 0.27294645 0.1705445 0.09590595 -0.11269485 -0.73563955 0.2428455 0.9788704 -0.65935405 0.59746 -0.27068495 -1.30661415 -0.41413455 -0.81415295 -0.55611455 0.29894815 -0.6350629 0.1121104 -0.68786375 0.2530716 
冈1_02_01 -0.0043036 -0.20595815 -0.5161684 0.14946555 0.5760869 -0.46780095 0.9054615 0.6213532 -0.1431148 0.63281635 0.02402535 -0.1610885 0.02705345 -0.05709305 -0.2759713 -1.161259 0.014601 0.22012 -0.11364155 -0.0017884 
冒1_05_02 0.09539395 -0.34627395 0.28469165 -0.10993835 0.41074655 -0.53143095 -0.3317246 -0.0605007 -0.6402959 -0.05611385 -0.25710435 -0.5145918 -0.3299879 0.0120339 -0.30202175 0.34483165 0.2187245 -0.12404375 -0.728788 0.09334805
写2_04_04 -0.2285383 -0.3518515 -0.43319045 -0.6315729 0.1234467 -0.3876744 -0.0221457 1.0594587 -0.1485459 0.0314608 0.4217713 -0.59933375 -0.38009405 0.01730315 0.15989525 0.26298055 -0.1303602 0.12417715 -0.04433565 -0.48963825
冷1_09_01 0.26500595 -0.002505 -0.3185576 0.00302095 0.23152445 -1.16941655 0.48125265 0.1995114 -0.1748791 0.0729964 -0.2310074 -0.58504175 0.120982 0.1474332 -0.62199245 -0.40937805 0.2877578 0.0780182 -0.5664883 0.16725625
冷1_09_04 -0.31051595 0.0812025 -0.41613755 -0.2086603 0.06275525 -0.771844 -0.6641163 0.09844815 -0.69397755 0.0580996 0.38202765 -1.01130785 -0.2018043 0.0045974 -0.5452218 0.2858741 0.17664055 0.2099991 0.0825664 0.185487 
冷1_09_07 -0.4656814 -0.0761311 0.13917395 -0.4287373 0.77271635 -0.6962623 -0.34560555 0.5234142 -0.14860605 0.7665129 -0.3915101 -0.375986 -0.28395915 0.2991801 -0.2878441 0.194062 0.00663265 -0.3439436 0.0284622 0.2634336 
冻1_05_01 -0.19857005 -0.2145062 -0.78507275 -0.39101795 -0.164143 -0.60135525 0.56029035 0.57349085 -0.05415645 0.01008275 0.27444045 -0.64900015 0.16054185 0.0187117 0.02393755 -0.27448005 0.0700368 -0.00328315 -0.1294217 -0.27392625
净1_05_04 0.23811685 0.35771455 -0.4584732 -0.11172225 -0.4968502 -1.1315689 -0.0383835 0.30666605 -0.4507662 0.94674185 -0.1988389 -0.6956689 -0.3950061 -0.17639165 -0.51453245 -0.2922619 0.4541382 0.24083625 -0.31554865 -0.00772305
准2_06_01 0.3762631 -0.59167605 0.5186377 0.6065839 -0.14757405 -0.56703055 0.20150285 0.7150887 -0.1806953 0.3475884 -0.2392332 -0.8333132 0.20822965 -0.4466042 0.03892965 0.44515175 -0.7240552 0.77571205 -0.62356935 0.4858178 
凶1_06_03 0.56677675 -0.6026143 -0.1592572 -0.1440939 0.16349085 -0.74902885 -0.354073 -0.1015921 -0.2371946 0.5853618 -0.29787775 -0.80167425 0.04024625 -0.4224097 -0.6021271 0.3055858 0.04924585 -0.15905475 -0.66001875 0.5548602 
出1_13_01 0.16295985 0.21661445 -0.39187925 -0.1985456 0.44431685 -0.8386754 0.12479065 0.30663415 -0.0979212 -0.1797736 -0.06962365 -0.47401435 0.0593766 0.00401495 0.3316611 -0.11164255 0.08986905 0.507932 -0.1791535 -0.1995456 
刃1_03_03 0.409328 -0.13176275 -0.6106272 -0.5628721 0.5774668 -0.6092286 0.6039538 0.9289346 0.009229 0.52105845 -0.02541115 -0.1105534 -0.48893795 -0.11698655 -0.09970445 -0.14984665 -0.15656395 -0.1330896 -0.74153985 0.13236785
划2_03_03 -0.48010315 -0.15904335 0.09703255 -1.14205825 0.50672195 -0.84896355 -0.3482554 0.4768373 -1.06512235 0.0280347 0.22119555 -0.2716559 -0.03587495 -0.24507305 -0.7222334 0.89476325 0.0736756 -0.24518775 -0.85218085 0.1121845 
判1_04_01 -0.1745307 -0.177238 -0.34867175 -0.6678703 0.17113035 -0.45783735 -0.13526135 1.12449885 -0.25613305 0.12051205 0.4802953 -0.6447217 -0.50893125 -0.0148792 0.24903355 0.20988485 -0.0232036 0.0215838 -0.0115364 -0.50069225
利1_06_04 0.58793825 -0.3769745 0.0041477 0.6184578 0.1431894 -0.49841315 0.19755975 0.64114165 -0.03633595 0.1226867 -0.04032385 0.3060407 -0.19912645 -0.21389025 -0.1653362 0.44271345 -0.20643485 0.6062087 -0.18441015 0.5353404 
利1_06_05 -0.24185735 0.07660725 -0.144126 0.02716895 0.85723505 -0.92327045 1.02034095 -0.0450735 -0.58394735 0.03311575 0.2957571 -0.3026956 0.4075327 0.20182705 0.5863477 -0.55952705 0.05808055 0.01926665 -0.4176243 0.40490175
别1_01_01 0.0218849 -0.15310415 -0.35216165 -0.3457187 0.32184735 -0.6366713 -0.11194445 0.44773855 0.09282045 0.0521596 -0.16614385 -0.071535 -0.2474579 -0.23611395 0.2363291 0.05948635 0.13854045 -0.29828495 -0.7341123 -0.20655535
别2_04_01 0.49034155 0.25249595 -0.1762832 0.25478075 0.28591045 -0.93701185 0.4407011 0.89400535 -0.41454845 -0.0545981 0.3702143 -0.5001771 -0.3933065 0.26375775 0.1565344 0.430468 0.6139351 0.23097565 -0.51386955 0.29254225
别3_03_03 0.0808469 -0.59605995 0.1879173 0.2413271 0.47283095 -0.45638225 -0.1041376 0.99908415 0.42203485 0.02303375 -0.26888245 0.1005193 -0.2453365 -0.35274425 0.1172619 0.07753205 -0.19961205 0.13898555 0.2202241 0.3317166 
刳1_01_01 0.0815598 0.14689625 -0.10169265 0.0964916 0.2863166 -0.6742829 0.1888354 0.34343955 -0.0973126 0.0894534 -0.1416234 -0.1129908 -0.1838585 -0.5704973 0.02257885 -0.11543975 0.3911497 -0.3116491 -0.1289959 -0.0963087 
刻1_07_03 -0.05824915 0.37422185 -0.9236186 0.41708765 -0.18757625 -1.1946684 0.70237255 0.57481235 0.26555905 0.5938812 -0.41241415 -0.5347981 -0.19299375 -0.81691425 0.1084611 -0.85026595 -0.17735405 0.2780075 -0.2250971 -0.1841935 
剀1_02_02 0.20424265 -0.49187425 0.059911 -0.1306133 0.3797578 -0.4018762 -0.343869 0.31773835 -0.195884 0.758128 -0.14958225 -0.369165 -0.06035305 -0.263427 -0.19655555 -0.00154605 0.26988025 -0.50068445 -0.19763565 0.3228278 
前1_09_01 0.5005294 0.1208758 0.1148749 0.28262115 0.51205255 -0.63944705 0.9811269 0.4301474 -0.1313304 0.34506095 -0.40807995 -0.47040975 0.08583905 -0.2342631 0.13796495 -0.6468503 -0.2731135 0.2132072 -0.340784 0.1255361 
剧1_02_01 0.05726495 -0.427868 0.08494 0.0534206 0.4237639 -0.6952952 -0.265133 0.5118408 0.2193127 0.01790035 -0.1493752 1.0098226 -0.4194321 -0.21154225 -0.02040375 0.12348795 0.35025695 0.6314594 -0.05177275 0.26864555
劝1_03_01 0.49567575 0.3552072 -0.47761725 0.04108535 0.3527068 -1.0559963 0.44387505 1.0424816 -0.5333851 -0.37580695 0.42871425 -0.3011928 -0.2700475 0.1420797 0.29632345 0.05412055 0.85995195 0.0783408 -0.02805205 0.27289545
办1_04_02 0.009737 -0.068672 -0.3399295 -0.33485725 0.35982745 -0.72106085 -0.07241455 0.44356225 0.14665205 0.03088935 -0.1244316 -0.1174591 -0.25465405 -0.21188455 0.24127065 0.0764681 0.18797955 -0.2485729 -0.666034 -0.1487449 
功1_04_01 0.1144726 -0.8267262 0.1724 0.13456475 0.7809736 -0.4631444 -0.4461581 0.38595595 0.38465825 0.38279335 -0.08561415 0.34306445 -0.21488645 -0.8710253 -0.16278345 0.4406416 0.54091105 -0.32977195 -0.03546185 0.2136954 
功1_04_02 0.08873255 -0.48989945 0.1160605 -0.05776665 0.37615845 -0.6610884 -0.1786943 0.45252745 0.1815583 0.1014334 -0.16050895 0.648181 -0.303342 -0.18654395 0.0455222 -0.03341615 0.29654925 0.46888785 -0.00353385 0.2505133 
功1_04_03 0.12880615 -0.858225 0.1775075 0.1031923 0.64503 -0.51104705 -0.4000097 0.35976235 0.36308175 0.33402835 -0.1607067 0.4232014 -0.17012665 -0.8112187 -0.2085729 0.4753617 0.4358875 -0.2945993 -0.1390713 0.10466895
动1_08_02 0.3206314 0.25272185 -0.39027695 -0.79657695 0.81578 -1.19510095 0.918102 0.1131861 -0.4037799 0.5173617 -0.34466025 -0.0554896 -0.34937735 -0.21808715 0.1864776 -0.18634665 -0.21476765 -0.2419499 -0.524239 0.32006465
助1_01_01 0.3920999 0.68099465 -0.0755164 0.2128007 0.11576545 -0.98986635 0.60511675 0.92825505 -0.5262824 0.20534575 0.2349296 -0.23610285 -0.40631255 0.47283095 0.09741735 0.32877115 0.7941281 0.0692605 -0.0901929 0.1270044 
劫1_02_02 0.26871425 0.4144172 -0.23044505 -0.10047975 0.2645615 -1.0907499 0.66447175 1.0702759 -0.61793105 0.36585175 0.1649255 -0.2740142 -0.32964885 0.30654315 -0.0862396 -0.0265433 0.9506492 0.01957285 -0.07073165 0.18643335
劲1_04_01 0.6574695 0.00896315 0.00991485 0.68358005 0.39352635 -0.73869305 0.2982023 0.7975885 0.1717944 -0.06939275 -0.15254665 0.14919885 -0.06858805 -0.58533805 -0.1157059 0.13637765 -0.593191 0.78370765 -0.02003845 0.0825357 
劳1_06_05 0.2327704 0.31208455 -0.6294433 -0.55768935 0.67970445 -0.4994664 0.70675825 0.42982895 0.13953515 0.34769575 -0.12259725 -0.1202763 -0.39828215 -0.2148653 -0.38221605 0.1517924 -0.0511353 -0.27207815 -0.4896304 0.1690176 
劾1_01_01 -0.2255939 -0.24839435 -0.269053 -0.4813772 0.2218392 -0.4619902 0.0859272 0.97118225 -0.207218 0.24009945 0.3531052 -0.7277061 -0.5024932 0.0800297 0.19676735 0.0820526 -0.2304577 -0.03548195 -0.08159485 -0.3241469 
勉1_04_03 0.3291225 0.0592402 -0.3105949 -0.13084145 0.50164995 -0.93329985 0.67019955 0.0353797 -0.1896067 -0.0266984 -0.19205865 -0.7489601 0.0485258 0.05604845 0.4268977 -0.2557393 -0.30947435 0.4150084 -0.3060945 -0.1176871 
包1_12_02 0.12391075 -0.18667405 -0.4638614 0.89104385 0.09276375 -0.80653085 0.80216105 0.53030205 0.2203704 0.03690015 0.1121667 0.00935165 0.11855495 -0.1396235 -0.251868 -0.2990454 0.09754905 0.05649805 -0.07314475 -0.30398855
匠1_02_01 -0.14012245 -0.27981265 -0.10858715 0.413025 0.04847845 -0.8744768 0.0672209 0.76942215 0.55685015 -0.0744568 -0.2801531 0.24396205 0.1028801 -0.35619455 0.21151815 0.1867743 -0.0685969 -0.0716473 -0.13054585 0.07435575
匠1_02_02 4.17722850e-01 -3.59521800e-01 1.72797900e-01 2.69035000e-01 3.89083500e-02 -8.86437000e-01 -6.85152000e-02 9.74459800e-01 5.20916150e-01 -4.30912500e-02 -6.81926150e-01 2.01054100e-01 -2.14350000e-04 3.65606500e-02 -1.15912550e-01 -2.79382750e-01 -7.18147500e-01 2.15862450e-01 -3.89613850e-01 1.56015550e-01
区1_03_02 0.1658079 -0.4446079 0.2333889 0.128514 0.43993655 -0.74266965 -0.08544675 0.2894898 0.3703709 0.3404869 -0.15220395 0.07304395 -0.2609021 -0.396369 -0.4807752 -0.30696205 0.372451 -0.06444185 -0.31260925 0.3252681 
医1_04_01 -0.0795877 -0.2997304 -0.0677971 0.44561005 0.2114025 -0.78812345 0.08866755 0.7356957 0.59137425 -0.08971665 -0.2784132 0.2128051 0.0414768 -0.3830586 0.26991595 0.08168915 0.00752895 -0.10953385 -0.084343 0.0227918 
华2_08_07 -0.19580815 -0.3042707 -0.5727464 0.49300185 0.2901577 -1.04445855 0.1781138 0.3090814 -0.22260435 0.8555481 0.3898797 -1.0202222 -0.38855755 -0.2616403 -0.23086095 -1.31063305 0.284361 0.12573275 0.19484065 0.09012015
卑1_04_04 0.28209345 -0.23155585 0.12430985 0.19479495 0.03633515 -0.81257165 -0.4098385 0.4952207 -0.76392165 0.7230743 -0.2177255 -0.27249435 -0.1099507 -0.65924945 -0.50112205 0.1902465 -0.4924324 0.5091107 -0.66012815 0.59913765
卖1_06_04 0.67189325 -0.1438334 -0.1962036 -0.13223325 0.163557 -0.70150805 0.03750955 0.52185495 -0.46283345 0.052937 -0.15489745 -0.1998462 0.16719975 -0.0571118 -0.2241193 0.6519638 0.19018655 -0.04149095 -0.37471055 0.1392832 
卜1_01_01 0.2426125 0.13576095 -0.38039845 0.5165403 0.4756442 -1.3816317 0.9126594 0.36999975 -0.21334195 -0.1109007 -0.0606392 -0.7237915 0.3110217 -0.10164485 0.0047322 -0.90053005 -0.03727025 0.20260735 0.0716057 0.3744123 
卤1_05_05 0.26401005 0.08010565 -0.63738815 0.38154455 0.56335155 -1.01969395 0.645835 0.5728904 0.1078382 0.06406355 -0.26035835 -1.13699345 0.4051379 -0.3630538 -0.16603635 -0.9073545 -0.1165392 0.3074439 -0.04545765 -0.3397062 
卧1_06_04 -0.2741832 0.2858458 -1.09490955 -0.2936922 1.11411815 -2.8266635 -0.28916965 -0.2271632 0.1188963 0.3236532 -0.24775675 -1.77244195 -0.2917915 -0.34027635 0.1842527 -1.07491025 0.19437375 0.05785685 0.0111541 0.21549175
危1_07_01 -0.0628004 -0.2739603 -0.34374875 0.3834229 0.1056957 -1.11776355 -0.0164418 0.3554717 0.45770415 0.8012406 -0.03021165 -0.21439615 -0.1241263 -0.46284685 -0.72013675 -0.7090282 -0.1008752 -0.0934669 -1.02986135 0.1649084 
卵1_04_01 0.0787806 -0.2693464 -0.71859015 0.32816045 0.74226345 -1.4557887 0.7523952 0.1463595 -0.0521319 0.08061025 0.53649375 -0.84681695 0.69725605 -0.5073939 -0.33298915 -0.923686 -0.04699565 0.33233705 0.49501665 -0.1878796 
卸1_05_05 0.62596245 -0.00440545 -0.1297391 -0.12481395 0.05110795 -0.5487364 0.207277 1.0124307 -0.24700445 -0.07113765 -0.1475144 -0.0380429 -0.56685545 0.22966265 0.21535105 0.0109308 0.21273305 0.39081115 -0.12434535 0.30013235
厅1_03_01 0.27633995 -0.3788667 -0.1318341 0.47453905 0.4699387 -1.1138747 0.03097795 0.4686487 0.857259 0.0824047 -0.20404625 0.28533965 0.0781844 -0.1592141 -0.1558204 -0.5354887 -0.4058651 0.08265985 -0.06398495 -0.38980525
厉1_03_01 0.07290715 0.31932735 -0.3288187 -0.4610902 0.80658895 -0.53045165 0.58937435 0.47809815 -0.509302 0.2412321 0.1299822 -0.53849175 -0.3464389 0.0572853 0.2638287 0.1140459 0.1724683 0.34727025 0.017497 0.4855746 
厌1_03_02 -0.12282505 -0.17542475 0.1010942 -0.03500155 0.1642942 -0.7984392 -0.5147554 0.10866795 -0.67206405 0.3932385 -0.0808853 -0.63915205 0.1014572 -0.24070215 -0.4544554 0.26982875 -0.2149972 -0.2090038 -0.21683815 0.1181074 
厢1_04_01 0.2147928 -0.40288325 -0.1169551 0.5182857 0.5159281 -1.07538245 0.04748585 0.4676453 0.90570055 -0.0020948 -0.2232964 0.2385003 0.16410495 -0.12826285 -0.18594335 -0.5151281 -0.46850435 0.08176475 -0.0876135 -0.3349063 
去2_01_01 -0.1999307 -0.1074638 -0.43893955 -0.03824915 0.7336246 -0.30393985 0.07939925 0.75751425 -0.3928856 0.09728175 0.1163747 -0.35863265 -0.312411 -0.1009977 0.23751935 0.30120585 -0.06193505 -0.33862485 -0.23217325 0.3845356 
友1_04_01 0.2468542 -0.41892185 0.0549701 -0.1757086 0.3819875 -0.75847185 -0.41047785 0.08857615 0.3228321 0.42358175 -0.25246335 -0.0199029 0.1339857 -0.3656874 -0.7571513 0.12826295 0.1093167 0.25968835 -0.42780545 0.1413718 
发1_17_10 6.54093350e-01 -3.15631650e-01 2.47375750e-01 -1.04759650e-01 3.89425600e-01 -4.06309600e-01 -3.91092600e-01 4.64699950e-01 -4.85417400e-01 3.86174600e-01 5.96379500e-02 -6.17839950e-01 2.68410500e-01 -3.27879750e-01 -2.23008400e-01 -2.69380500e-02 -1.97500000e-05 -4.37911000e-02 -1.43297750e-01 2.15697950e-01
发1_17_16 0.3514353 -0.0253946 -0.20301325 -0.2159536 0.78630965 -1.485438 0.104212 -0.39079915 0.0159451 0.1415894 -0.04965545 -0.5831274 -0.053866 -0.067403 -0.19929845 -0.6160402 -0.34188175 -0.01032535 -0.54578095 0.20989855
右1_07_06 0.2181363 0.1845838 -0.42452845 -0.06703 0.483834 -0.81330985 0.12862865 0.2654748 -0.18386585 -0.0499659 -0.1041423 -0.483098 0.05358605 -0.0246938 0.28733815 -0.1169782 0.09294745 0.51764385 -0.25275015 -0.1378678 
号2_13_01 -0.1345082 -0.4509888 -0.28373175 0.77636375 0.16847375 -0.7591244 0.06559975 1.1520955 0.1819346 0.4466114 0.48473165 -0.51981825 -0.63568525 -0.18480235 -0.78769635 0.37178705 -1.1770092 0.40471415 0.00773335 0.0993315 
号2_13_03 0.25629775 -0.0631029 -0.5257252 0.4593192 0.32317395 -0.96600385 0.5753811 0.3967625 0.47925465 0.1543495 -0.12212185 0.1736924 -0.48281965 -0.359036 -0.59911985 -0.2485056 -0.2822387 0.3106297 -0.44295285 -0.0261074 
号2_13_04 -0.1126117 -0.7192778 -0.43981225 0.36316645 0.01597105 -0.6037823 -0.3400189 0.85547515 0.0590498 0.6054702 0.55480075 -0.42056655 -0.4880257 -0.3060204 -0.4684513 0.3907045 -0.61013935 0.21467555 -0.0526056 -0.0587046 
号2_13_05 -0.59228535 -0.22853515 -0.4800984 0.7612072 0.6001981 -0.5260347 -0.1121916 0.5549552 0.1465382 0.4947496 0.0846014 0.10921305 0.61390805 0.1208054 -0.304729 0.0414768 -0.2655557 0.18759025 0.397948 0.15844765
叹1_03_02 -0.2316176 -0.22000925 -0.2943976 -0.48330285 0.2607251 -0.46515515 0.1172806 0.90128855 -0.25781675 0.15881625 0.440406 -0.6914417 -0.48908855 0.10264875 0.1496367 0.1385381 -0.19626015 0.0059267 -0.10332135 -0.3011297 
同1_01_01 -0.22973035 -0.27230755 0.6056941 0.09515725 0.42036245 -0.84269885 0.4579403 0.1119153 -0.2594495 -0.1962367 -0.4577756 -0.0277178 0.54750755 -0.1675143 0.0196878 -0.1262309 -0.64568485 -0.0251863 -0.94588925 -0.20514135
向1_06_01 0.0509428 -0.66497285 -0.2063617 0.17699845 0.35802955 -0.28282645 0.12535145 0.91485535 0.2137394 -0.11112065 -0.3126844 -0.1686983 0.64037195 -0.13991075 0.4210564 -0.05510745 -0.35572875 0.51081855 0.24478395 0.69015495
员2_03_01 0.33325055 -0.34715735 0.23719475 0.1598703 0.03844455 -0.8177367 -0.05597825 0.91129975 0.55157635 0.06577465 -0.5605367 0.24495955 -0.02788305 0.14342125 -0.0443439 -0.15178115 -0.6041073 0.1281052 -0.2665802 0.39485685
员2_03_02 0.2150863 -0.4876239 0.05108055 -0.19417725 0.34891895 -0.795132 -0.3406361 -0.0581569 0.31616375 0.37257805 -0.2134996 -0.0243571 0.22967335 -0.2820376 -0.7538394 0.04956455 0.0062516 0.254995 -0.4366579 0.12437585
味1_06_04 0.3339376 -0.2933043 -0.0777344 0.46466185 0.3776553 -1.0391809 1.37846395 0.3832446 0.31010365 0.1724262 0.074836 -0.68305875 -0.093036 -0.15385135 -0.1803694 -0.6405798 -0.3184744 -0.13108375 -0.1403688 0.2539681 
呷1_01_01 0.2551196 0.0440758 -0.22009995 -0.17918875 0.58299715 -1.1233887 0.32683545 0.14181775 -0.17133105 -0.07597235 -0.35213875 -0.1057597 -0.18618245 -0.7768863 0.22544475 -0.73909155 -0.35880775 0.34920945 -0.50725655 -0.24507145
咏1_02_01 -0.202921 -0.24599865 -0.24142305 -0.32490035 0.28829085 -0.46174775 0.0214328 0.8298393 -0.28232455 0.098406 0.35950415 -0.58952765 -0.5149841 0.1569618 0.1601971 0.1333415 -0.15755285 0.0049557 -0.08248995 -0.19950575
唆1_01_01 -0.24046025 -0.1759245 -0.25989685 -0.4803186 0.25426065 -0.44944275 0.1316262 0.8614933 -0.21669825 0.1781891 0.41094265 -0.70265985 -0.43988195 0.1368107 0.1828989 0.09172465 -0.18535285 -0.00357805 -0.12121835 -0.26295805
唱1_04_01 -0.1338564 0.03479255 -0.2827856 -0.3759279 0.338224 -0.5467399 0.0284816 1.0037181 -0.3008305 0.1723683 0.56452445 -0.68850525 -0.59684965 0.13357115 0.1401237 0.04012865 -0.16437855 0.07433785 -0.10872175 -0.23668375
啴1_01_01 0.4464126 0.2626202 0.10177415 -0.51477475 0.78026425 -1.1887196 0.495444 -0.11503995 -0.6902226 -0.13793655 -0.4562852 -0.8891472 -0.707777 0.294164 -0.49913795 -0.41269665 0.72563495 0.46703505 0.02473555 -0.37512575
善1_10_03 -0.0766776 -0.1272413 0.18215025 0.03447605 0.4999413 -0.72392145 -0.8020308 0.60522685 -0.10855515 0.22300505 -0.26786275 -0.2382674 -0.51229925 -0.2651615 -0.5465593 -0.59163985 -0.2305056 -0.25601565 -0.13985805 -0.12552785
嗓1_02_02 -0.3705546 -0.7133112 0.4705681 0.41950855 0.3676457 -0.73314935 -0.5053919 0.5563134 0.15981955 -0.06913015 0.13417295 0.0386186 -0.0118077 -0.1462637 -0.22096325 -0.2011441 -0.25615065 -0.15441945 -0.07674905 0.05521965
嚷2_03_02 -0.21744145 -0.28564 -0.37366935 -0.5832654 0.24220565 -0.43170905 0.0730327 0.9725986 -0.23108895 0.09349395 0.4681913 -0.67632665 -0.4568888 0.0282604 0.11994665 0.24525235 -0.13490395 0.0233017 -0.0476959 -0.4040213 
国1_05_01 0.74808805 -0.13649965 -0.36043945 -0.13073915 0.68948675 -0.7915125 0.63097795 0.76004165 0.1543641 0.4220159 -0.88652145 -0.14953765 -0.09414355 -0.74967845 -0.5838245 -0.12065905 -0.31288355 0.52104 -0.57020005 0.28553315
图1_06_01 -0.33456425 -0.24818455 -0.43650765 0.22605095 0.32219645 -0.38305145 0.05826695 1.03014355 0.42159045 0.28079685 0.22023915 -0.04249195 -0.08745955 -0.10112415 -0.0460784 -0.43446915 0.1568544 0.56251825 0.22819225 -0.04336795
图1_06_04 0.19539615 -0.82175815 0.51627295 -0.3091333 0.56358755 -0.6582033 -0.5536224 0.56558775 -0.3895171 0.03755055 0.2943244 0.2168509 0.43588625 0.0763643 -0.505099 0.384036 -0.12501425 0.01877875 -0.0812323 0.3873055 
土1_07_02 0.22694595 -0.01438645 -0.6598674 0.3594196 0.43584585 -0.7710186 0.70381845 0.7197125 0.2381016 0.44669205 0.18907215 0.00338755 -0.3803681 -0.4394047 -0.00824895 -0.4104195 -0.12258155 0.26211885 0.0327322 0.64403555
圣1_06_01 0.7610934 0.2466013 0.4799504 0.3128006 0.3393337 -1.1139746 -0.38080755 0.8200434 0.0568779 0.9365822 -0.83674005 -0.3923947 -0.00152715 -0.38744315 -0.28984065 -0.93921865 -0.03487515 -0.14844705 -0.9075415 0.20185405
圩1_01_01 0.5488577 -0.2657135 -0.28026185 0.1512198 0.29564385 -0.7995223 0.8153607 0.3296571 0.2963589 0.35009135 -0.7131074 -0.49690635 -0.30246665 -0.4500194 -0.16277965 -0.8405843 -0.3592397 0.2034758 -0.37044815 0.19215665
地2_13_01 0.6807776 0.1584545 -0.4138965 0.3558407 0.19816515 -1.54628625 0.34638915 0.1733778 0.30859175 0.84105895 -0.2727555 -0.9128798 -0.8401704 -0.57858755 -0.28788225 -0.49233715 -0.0929437 -0.0543251 -0.57050805 0.3440224 
地2_13_09 0.2965687 -0.0919513 -0.18357965 0.1628492 0.3479747 -0.7564633 0.2683717 0.46604535 0.22816585 0.50621015 -0.7374212 -0.62702475 -0.15437315 -0.64847955 -0.4439681 -0.39349195 -0.18542335 -0.0046205 -0.14076865 0.13850085
地2_13_11 0.16149745 -0.8537454 0.1313056 0.1470608 0.80330735 -0.43305655 -0.39075055 0.248076 0.3700839 0.3170045 -0.09143635 0.38551865 -0.15021005 -0.84480425 -0.20276735 0.42909475 0.471285 -0.37831635 -0.13948555 0.10108725
地2_13_13 -0.3806553 -0.1281435 0.2188084 0.39867585 0.3444393 -0.65666225 0.0930527 0.71319115 0.28678855 0.20361345 -0.08483045 0.08419335 -0.1296502 -0.6302141 -0.38569575 -0.1752856 0.1620909 0.0058212 0.09699075 -0.03436585
场2_09_01 0.1540441 -0.23682055 0.05682755 -0.1185743 0.3431022 -0.6016341 1.0391741 0.44640955 0.1572781 0.2424353 -0.45676255 -0.01383135 -0.0100621 -0.42240925 -0.316401 -0.29337995 -0.1112068 0.2319771 -0.5268504 0.12545575
址1_01_01 -0.0025539 0.06813665 -0.2808634 0.306732 0.4244808 -0.89398025 1.16268605 0.922202 0.6571408 -0.18679185 -0.44654575 -0.51971685 -0.092266 0.21857645 0.1351127 -0.85812865 -0.415268 -0.03534855 0.1440954 -0.1498371 
坋1_01_01 3.09124800e-01 -5.51396500e-02 -6.01041050e-01 3.21417000e-02 2.31603600e-01 -1.22245150e+00 1.00291150e+00 6.56371200e-01 1.74721500e-01 -4.18533500e-02 -4.13650000e-04 -2.11552150e-01 1.94015750e-01 -2.94989600e-01 -6.22963500e-02 -7.43796300e-01 4.72261500e-02 1.12556050e-01 4.51653500e-01 -2.27355800e-01
坐1_11_05 0.36400015 -0.42672835 0.021263 0.4822552 0.26604295 -0.62294245 0.965351 0.6755292 0.40513685 0.0787075 -0.66527245 -0.1744222 0.1316954 0.11032225 -0.17802995 -0.21475505 0.1099699 0.18641885 0.0514159 0.0686264 
坦1_03_01 0.20541235 0.2067401 -0.51186665 0.61380865 0.34960495 -0.8406009 -0.24533305 0.4761098 -0.1353433 0.55907055 -0.0125058 -0.37972715 -0.10009105 0.17194115 -0.2467452 -0.5173425 0.6394823 0.039703 0.1325637 0.37425025
垄1_04_02 2.31696450e-01 -1.44454850e-01 3.82934600e-01 3.46292750e-01 1.45254800e-01 -8.09129400e-01 4.69669900e-01 9.74468350e-01 1.48672800e-01 -5.70828000e-02 -4.80232550e-01 -7.37700000e-04 8.57515000e-02 -1.68679900e-01 -2.13495350e-01 -2.05261050e-01 8.37931500e-02 1.41821000e-02 1.36952500e-01 -5.78305000e-02
型1_02_01 -0.2327957 -0.14700925 -0.55767075 0.50133215 0.36556505 -0.8160499 0.5461694 0.6539758 0.23966195 -0.1101709 0.32224595 -0.4829889 0.38653175 -0.40700775 0.50851215 -0.19435595 0.0479705 -0.18249675 0.1437416 0.0479781 
垢1_03_02 0.31956105 -0.29613805 -0.54458625 0.23231015 0.3082281 -1.2988476 1.0180451 0.72754215 -0.02546485 -0.0255335 -0.1910188 -0.2694735 -0.03880835 -0.256784 0.44110325 -1.05321075 0.7486318 0.0046958 0.0985003 -0.17846715
垣1_03_01 -0.13350885 -0.1312731 -0.76050895 0.77550505 0.37420095 -0.77511215 0.86346885 0.57672585 0.5311565 0.03558585 0.10515545 -0.0408147 0.12232305 -0.164282 0.3191095 -0.6607145 -0.1290444 -0.1540222 -0.12569565 -0.17889875
垫1_04_02 0.24158325 0.375304 -0.36749995 -0.1812774 0.6797682 -1.0528364 1.1961486 0.0245737 -0.06730325 0.07659575 -0.2639986 -1.2575913 -0.2630432 -0.59398295 0.51679465 -0.2210274 -0.7649221 0.77065025 -0.58560775 -0.4711246 
埸1_02_02 0.20571835 0.4873357 0.12129645 0.0528363 0.84725935 -0.9284208 0.79838715 0.27296135 0.21353915 0.3685598 -0.6286716 -0.2172812 -0.4863351 -0.0926786 0.04993455 -0.5594738 -0.1394872 0.11663875 -0.09270725 0.21967615
基1_04_01 -0.09459525 -0.40908335 -0.5842141 0.69341985 0.46872545 -0.71293255 0.61547925 0.68336855 0.20327275 0.3684141 0.3525253 -0.48161295 -0.10249855 -0.40874535 0.15335175 -0.72186265 -0.1556208 -0.2489168 0.2428068 -0.14772285
堂1_08_02 0.4354502 -0.0906906 -0.04901725 0.87453275 0.1754268 -0.6630207 0.22720665 0.5887767 0.21269525 0.4736072 -0.5737133 -0.297337 -0.3831632 -0.21521905 0.1498893 -0.67326445 -0.582475 0.42773885 -0.47962655 -0.041615 
塞3_02_01 0.0682526 -0.0949357 -0.0939475 0.1155272 0.17188705 -0.749972 1.1501514 0.7417749 -0.2144559 -0.1649538 0.0983839 -0.51816565 0.19764675 -0.93429895 0.2824748 0.0227531 0.56140115 0.2600029 -0.41519465 -0.52953805
填1_03_03 0.7159108 -0.2746556 -0.03396085 0.0762904 0.5049393 -0.62295955 -0.25534825 0.52826905 -0.3756539 -0.291428 -0.29226905 -0.17860105 0.2368909 -0.0088981 -0.242454 1.0618273 0.2384457 0.11345715 -0.3064157 0.25739595
士1_08_06 -0.05353915 -0.13693985 -0.24294145 0.5066279 0.18125135 -0.8751359 0.06038855 0.8115797 0.4763755 -0.0690735 -0.2713707 0.27207465 -0.0300724 -0.49219265 0.16491655 0.0611589 -0.0235624 0.0174571 -0.2329556 -0.0823023 
处2_06_05 0.38935265 -0.00323945 -0.66026525 0.09487355 -0.0641059 -0.4529513 0.54761365 1.02102235 0.1572329 0.01114235 -0.35256875 -0.88609855 -0.2283235 -0.3594271 0.181767 0.55300485 -0.35614045 0.0724576 -0.53385765 0.2664202 
备1_06_04 -0.4718989 -0.4179683 -0.5717155 0.5806881 0.0327903 -0.99412355 1.21847365 0.86220445 0.52761345 -0.48302035 0.2302507 -0.75527525 0.51932425 -0.4889286 0.76657275 -0.25703065 -0.3593542 -0.10430345 0.08923225 -0.02211725
夐1_03_01 0.0459974 0.0619361 0.01751095 -0.2061557 -0.10774395 -0.77589145 -0.4160957 0.33574675 -0.36689735 0.30854195 -0.1566431 -0.53087135 -0.3465854 -0.8365397 0.1652434 0.21022555 0.42872845 -0.0633687 -0.6178311 0.060955 
大1_09_02 -0.3332148 -0.2040851 0.1384941 0.46250375 0.33905105 -0.66316505 0.06845715 0.63972505 0.23621905 0.2039539 -0.18147045 0.10899745 -0.13041525 -0.60609615 -0.3094683 -0.30579405 0.1105786 0.0367208 0.0805366 -0.02662085
天1_12_01 0.4271079 0.1342278 -0.3589039 0.3637669 0.27112705 -1.13473345 0.7312309 0.1276916 0.36054185 0.2513933 -0.56962155 -0.7110541 -0.20682545 -0.2295641 -0.35571865 -0.5940889 0.3482628 0.1038013 -0.2710727 0.18448755
天1_12_06 0.4353904 0.2146972 -0.4265496 0.2525136 0.40833555 -0.9065505 0.4426921 0.61008285 0.0488043 0.47267525 -0.2428705 -0.5135144 0.2738746 -0.2885136 -0.063078 -0.853767 -0.24195315 -0.22813465 0.07114365 -0.1835068 
天1_12_07 -0.39217745 -0.1982765 0.2071006 0.4535992 0.32471455 -0.64296445 0.10129115 0.6763118 0.22355305 0.1564436 -0.10326035 0.1020339 -0.1220833 -0.59174365 -0.36821005 -0.2142796 0.1724697 0.0659426 0.1232045 0.0118783 
天1_12_09 -0.1017948 -0.24364535 -0.1552122 0.5478208 0.2420769 -0.6311814 0.26356715 1.06053875 0.3802177 0.17716925 -0.0965269 0.18859195 -0.330972 -0.7392087 -0.5208554 -0.0533222 -0.52832815 0.0922087 -0.36203965 0.2057114 
失1_07_04 0.6534593 -0.1782847 -0.19182315 -0.1136479 0.19343215 -0.6810266 0.04878885 0.4960105 -0.4510137 0.055859 -0.17408135 -0.1774732 0.13956 -0.04910435 -0.2174978 0.6303701 0.1925657 -0.0166076 -0.35085585 0.1747247 
头1_02_01 -2.57750900e-01 -1.95369100e-01 3.34828800e-01 7.09311850e-01 6.85093500e-02 -1.34887185e+00 -4.64350000e-04 6.68484150e-01 1.02345260e+00 6.99386350e-01 3.72836150e-01 -4.37484050e-01 5.61164300e-01 1.11283500e-02 9.32641700e-01 -4.51629150e-01 5.60710400e-01 6.25767600e-01 -5.15558800e-01 -2.29430850e-01
头2_14_01 0.05690445 -0.36863675 0.4242126 0.44425585 0.5589097 -1.0182879 -0.12893725 0.47905675 -0.32626245 -0.02940665 0.0947816 -0.221303 0.31754345 -0.09853515 -0.3221514 -0.5705548 -0.05223555 0.05296155 0.08962865 0.09465845
夺1_05_02 0.66085625 -0.0438037 -0.1552091 -0.1713871 0.13946135 -0.5730077 0.25971535 1.0463546 -0.20071455 -0.02084725 -0.1424345 -0.09554655 -0.6210697 0.21532135 0.36231315 -0.040853 0.21935995 0.3834725 -0.08123985 0.27391785
奀1_01_01 0.0346103 0.4599755 -0.1730645 -0.46961555 0.9232415 -1.60996915 0.1406522 0.0087496 -0.3268525 0.22111905 0.1335804 -0.9711963 -0.1709553 -0.3348088 -0.43243215 -0.316689 -0.094592 0.3387898 -0.1180292 0.21647945
奋1_03_01 -3.45136450e-01 -1.44030850e-01 1.14799700e-01 -9.26145850e-01 3.09924900e-01 -9.28761000e-01 -3.39708550e-01 4.54210050e-01 -9.18783250e-01 9.31978000e-02 -6.00500000e-05 -3.48412750e-01 -5.27299500e-02 -1.43172400e-01 -6.83005950e-01 6.80547900e-01 -2.12223500e-02 -3.34602850e-01 -8.63462100e-01 1.59005750e-01
奖1_02_01 0.47767325 0.5654546 -0.4006705 -0.05568405 0.53336965 -1.15686425 0.2522322 1.09529365 -0.423409 -0.3197113 0.31483705 -0.1592528 -0.52899925 0.2343766 0.16026385 0.1247042 0.88734805 0.13237805 -0.0964179 0.24540305
奖1_02_02 0.52948655 0.01098515 0.01444085 0.6151501 0.4066394 -0.7372889 0.2906597 0.8294191 0.187709 -0.0601542 -0.14070415 0.0258067 -0.15867795 -0.4798197 0.00561135 0.10146035 -0.54150955 0.637897 -0.01606815 0.16330445
套1_19_01 0.06834365 -0.2532674 -0.46379795 0.54498695 0.43502265 -0.8129974 0.6167188 0.4967095 0.4568298 0.3450373 0.36481995 0.0897597 0.73848765 -0.3753377 -0.2155309 -0.36640935 -0.0251316 0.1931476 -0.246804 0.05531815
好2_15_10 0.61431315 0.3399043 -0.17668955 0.2023364 1.10326745 -0.3873411 -0.5000691 0.76626505 0.00896705 0.25214795 0.1935103 -1.0565083 -0.15568265 0.74366515 -0.1347514 -0.127352 0.46982945 -0.295021 0.0398771 -0.08644155
娴1_02_01 0.3412562 -0.01604355 -0.12134235 0.31606375 0.05612715 -0.7354114 -0.6804838 0.4311431 -0.36838645 0.89588035 -0.00337705 -0.8680861 -0.00636165 -0.50197265 -0.7573719 0.1124678 0.119015 0.4632786 -0.4452873 0.12624015
媒1_02_02 0.41691705 -0.08229635 0.04516715 0.5177423 0.48339555 -0.6673285 0.28089715 0.5612305 0.14081155 -0.1005218 0.0702609 0.08527465 -0.1252805 -0.3578942 0.0171678 0.1499844 -0.423866 0.5673621 -0.11707195 0.22008715
子1_13_06 0.1033405 -0.21964655 -0.23465345 0.31856165 0.33494165 -1.4197757 0.4882562 0.170338 -0.0429176 0.3475156 0.16400865 -0.4210863 0.29972975 0.11177265 -0.3064295 -0.87699885 0.12966225 -0.12961805 -0.35085585 0.54474105
字1_10_08 -0.41292545 -0.34843575 -0.15709575 0.83134385 0.47424005 -0.44474745 0.0826659 0.7099193 0.3141954 0.18359655 -0.12360955 -0.1523748 0.0224704 -0.1991132 0.35594155 -0.0519169 -0.5718336 -0.1396474 -0.00991775 0.44162075
学1_06_01 -0.18624615 -0.08919015 -0.30277025 -0.476327 0.3087433 -0.47878765 0.0592574 1.07150555 -0.1785204 0.31678715 0.5349221 -0.71605395 -0.49701655 0.076795 0.22190005 0.1892334 -0.0883479 0.0683908 -0.0268027 -0.2631805 
学1_06_04 -0.08651255 -0.31964195 -0.1015408 0.5332203 0.23335755 -0.6319835 0.187814 0.99875135 0.43218115 0.213241 -0.03293315 0.1470044 -0.3080979 -0.56884235 -0.50810835 -0.1685926 -0.494489 0.1256161 -0.33887235 0.2821815 
学1_06_05 0.25251035 -0.05024125 -0.3531227 0.41011035 0.24556145 -0.958295 0.56738085 0.3891799 0.51304635 0.2187886 -0.2525197 0.0573274 -0.47037765 -0.41688005 -0.43818575 -0.289998 -0.2743441 0.25332155 -0.50334795 0.12039965
孽1_03_02 0.1618368 -0.6474203 0.3914849 -0.3064507 0.45091375 -0.7371556 -0.4067134 0.4684104 -0.44644745 0.1484471 0.2824075 0.132187 0.30608935 0.0268846 -0.3968242 0.3043455 -0.15378425 -0.04306755 -0.17009975 0.38548035
宁2_05_01 0.33820205 -0.14824325 0.49209405 -0.0013209 -0.06821395 -1.1719665 -0.5277505 -0.18838885 -0.56055955 -0.2550195 -0.37075535 -0.99266555 0.056212 0.13545515 -0.5490088 -0.4580272 0.01378 -0.0314171 -0.4945906 0.6263673 
安1_09_08 -0.4229973 -0.10407 -0.05326385 -1.06357 0.37448215 -0.9919192 -0.3727678 0.55712015 -0.99757885 0.2359696 0.1699454 -0.23353515 -0.0010771 -0.4112403 -0.68039205 0.78749745 0.02803055 -0.35958265 -0.8861837 0.01984635
定1_08_07 -0.13318235 0.04511905 -0.07663745 -0.1235536 0.51016 -0.59049065 -0.44181655 0.19530865 -0.62802555 0.6547693 -0.04501225 -0.6893955 -0.19130015 0.21690875 -0.26667375 0.09046475 0.2320909 -0.2460882 -0.02353305 0.0733788 
宝1_05_01 0.01503465 0.1498852 -0.49040995 0.9885248 0.03156055 -0.81930265 0.9858558 0.7860511 -0.08169785 0.33739285 0.2577359 -0.591401 0.2615083 -0.27471015 0.051221 -0.25474485 -0.2106171 0.074718 -0.03125255 -0.0847577 
实1_05_01 0.36308065 0.1107177 -0.1998875 0.3634275 0.57424645 -0.3002639 -0.27630905 0.51523945 -0.2672675 0.454901 -0.01581795 -0.5043419 -0.1380591 -0.2632608 -0.1679737 -0.21782635 0.5830242 0.3173974 -0.06290835 0.0990088 
审1_04_02 -0.2009769 -0.20192005 -0.30249215 -0.6546284 0.22293795 -0.4266381 -0.0254585 1.0084805 -0.2187189 0.1165974 0.5484862 -0.7357331 -0.46263175 0.0249643 0.1816953 0.25485055 -0.0966293 -0.02503055 -0.0745792 -0.39424835
客1_10_01 0.23163785 -0.3386009 -0.03456805 -0.13013205 0.377445 -0.8970114 -0.4243933 0.22888365 0.37166595 0.45844875 -0.1519509 -0.17012255 0.1864842 -0.3261758 -0.7785869 0.0122379 0.07668245 0.3173631 -0.2968054 0.16075165
客1_10_02 0.0587737 -0.533541 -0.1693671 0.06013195 0.50559795 -0.85957045 0.08064465 -0.2033765 0.5059779 0.10351825 -0.3551861 0.21520655 -0.24288025 -0.3512867 0.092566 -0.34232685 -0.74461635 0.4441512 -0.41773125 -0.3693047 
宣1_06_01 -0.2299935 -0.3340619 -0.3391162 -0.5844888 0.2600711 -0.41487975 -0.11421225 1.08775025 -0.16550335 0.046161 0.42747755 -0.64306865 -0.5039429 -0.01697395 0.23067415 0.248361 -0.0535911 0.0456744 -0.03585425 -0.4113108 
宪1_03_02 0.37503465 -0.5277617 0.3827125 0.57188315 -0.0673232 -0.5105768 0.17216465 0.76319745 -0.07370655 0.3421859 -0.2166988 -0.763244 0.15459175 -0.6014061 0.0454219 0.4963554 -0.61861195 0.7605033 -0.5843479 0.43096055
宫1_06_01 0.64486585 -0.17386545 -0.25693005 0.3222917 0.0471299 -1.06128245 0.3957246 0.4875854 0.4041672 -0.1507697 -0.76627035 -0.3712713 0.46573535 -0.4218173 0.05958235 -0.82746785 -0.7788287 0.4282039 -0.997926 -0.59247675
容2_03_03 -0.2009366 -0.0855569 0.27931375 0.4689109 0.12008405 -0.67140745 -0.1114215 0.60186105 0.1682258 0.1317577 -0.1237631 0.02177595 -0.1332242 -0.6422388 -0.32452425 -0.2289059 -0.0833247 0.10675745 -0.06398735 -0.08089255
寄1_05_02 0.60977475 -0.012322 -0.144291 -0.24228615 0.17438375 -0.5536684 0.2378906 1.02855525 -0.2409572 -0.0320674 -0.1329293 -0.05662605 -0.60775845 0.22915395 0.36018295 -0.0735353 0.20402925 0.3833787 -0.09769375 0.2814809 
对1_16_07 0.66045125 -0.05621355 0.1136816 0.1548599 0.11928465 -1.03278045 -0.2915752 0.09544495 -0.91270795 0.40862125 -0.144091 -0.98110265 -0.11592585 -0.5885252 -0.2955418 0.0804558 0.30861115 0.55588185 -0.2328547 0.6500092 
封1_02_01 1.1160383 0.3426248 -0.5644836 -0.51845965 0.2120356 -0.72156645 0.0931583 0.83569345 -0.466341 0.69003705 -0.41386435 -0.5095192 0.39908285 -0.7235165 -0.2148311 -0.16195465 -0.40824285 0.3010174 -0.6961176 0.08115755
小1_09_01 0.30459905 -0.3007324 -0.0244109 0.38713135 0.19826175 -0.90854265 -0.2728816 0.22927245 -0.1118795 0.6857071 -0.2561751 -0.6220461 -0.69599685 -0.90941795 -0.32750535 -0.74903415 0.2865517 0.4027745 -0.41731985 -0.2824437 
少2_05_02 1.028532 0.36152095 -0.06952625 -0.41429265 0.60264275 -0.8143853 0.49242915 0.5481457 -0.91698415 0.739057 0.38049615 -1.05200585 0.21922525 -0.18024815 -0.32415095 0.0995508 0.05515885 -0.2352482 -0.1094144 0.14350555
尖1_09_01 -0.26495535 0.1414721 -0.6251634 -0.16340145 0.01881075 -1.17688895 0.67671105 0.6161814 -0.63175985 0.45008585 0.87841015 -1.45835855 0.37498325 -0.1725825 -0.0851655 -0.886611 0.29278385 0.19669635 -0.29677315 -0.0033367 
尽1_07_01 -0.55850295 -0.2568799 -0.10301515 0.53049835 0.6997059 -0.1727954 0.0902309 0.34786935 -0.14050655 0.35861375 0.02703345 -1.15532245 -0.39101065 -0.373425 -0.0281645 -0.330364 -0.2440143 -0.4898089 -0.304742 -0.0196464 
屏2_02_02 0.8068031 0.02790535 -0.07774515 -0.1667357 -0.0792879 -0.63358945 0.1520389 1.0759901 -0.2864001 -0.04387675 -0.1409812 -0.0236084 -0.5748565 0.19630185 0.2321842 -0.06847275 0.19221845 0.35629685 -0.0960708 0.2063934 
山1_05_01 0.02242705 -0.1080127 -0.46234375 0.1928063 0.6187174 -0.52493065 0.88634695 0.6421013 -0.18268965 0.64029655 -0.0051096 -0.12145905 -0.0839945 -0.0500308 -0.3470194 -1.1172013 0.01142875 0.2141924 -0.1594834 -0.02875435
岁1_05_04 -0.08846525 -0.13676395 -0.0413602 0.24542345 0.0816113 -0.33559345 0.21103215 0.9288827 -0.13797765 0.39284885 0.0608773 0.0068944 -0.2939232 -0.5005482 -0.08077285 -0.85804725 0.0796691 0.0727482 -0.46874035 0.04905745
岩1_04_02 3.04484000e-02 -1.35465950e-01 -4.68988800e-01 1.80284450e-01 6.63913050e-01 -4.96791150e-01 8.68367100e-01 6.03304000e-01 -2.05834950e-01 6.73846150e-01 7.40600000e-04 -1.89566400e-01 1.30742000e-02 -1.10545000e-02 -2.79223550e-01 -1.20068455e+00 6.21354000e-02 1.65589950e-01 -8.78891500e-02 3.88198000e-02
岸1_02_01 -0.340956 0.24719615 -0.3117823 0.62898335 0.1589302 -0.781751 0.3724611 0.66605165 0.17792585 0.42107945 0.32112055 -0.2372493 0.15569875 -0.2449603 0.12878195 -0.64440915 -0.62820985 0.31089965 -0.49331675 -0.22574855
峥1_02_01 0.5757398 0.432127 -0.38233775 0.4948791 0.6447145 -1.36806145 0.1684298 0.376711 -0.1989284 -0.24020145 -0.4773179 -0.51230255 0.2375627 0.35024855 -0.4463284 -0.8393533 0.31562115 0.19332035 0.10018795 -0.2164219 
工1_10_04 -0.12201395 -0.30930425 -0.00795975 0.5412904 0.2688279 -0.63451295 0.22948595 1.0442554 0.3997792 0.25624605 -0.0646824 0.11711095 -0.36753205 -0.55966935 -0.488299 -0.1421949 -0.55173445 0.1227598 -0.28181905 0.33795185
工1_10_09 0.1008843 -0.11628215 -0.0973452 0.3194062 -0.1935502 -0.73157 -0.60116805 0.6107675 -0.2146909 0.6648296 0.09735115 -0.2129138 -0.79188075 -0.21937385 -0.59212485 -0.3448243 0.3807658 -0.4160125 0.13666675 -0.15040675
币1_01_01 0.46707975 -0.29072615 -0.06879405 0.75040295 0.2658846 -0.50775705 0.30223915 1.17066405 -0.07917625 0.34133515 0.0573775 -0.19981435 -0.105086 -0.4454858 0.0303751 -0.26423315 -0.02882415 0.2666566 0.21357245 0.21965645
市1_05_02 0.78003665 0.55315895 -0.34470955 -0.0834214 0.57228235 -0.69893375 0.05844565 1.02902275 -0.117547 0.28354 -0.39478635 0.1407911 -0.1582423 -0.2777918 0.38607765 -0.1701319 0.0067832 0.4901473 -0.13714825 0.06830245
帑1_01_01 0.5573879 -0.3494689 -0.01693835 0.6654922 0.2237146 -0.50015145 0.1390772 0.66403685 -0.0417101 0.127491 -0.1352135 0.2263735 -0.23758515 -0.2345854 -0.15291715 0.30790055 -0.39595885 0.6016374 -0.23913715 0.5051626 
帧1_01_01 -0.021779 -0.1444812 -0.0585889 1.1168729 0.2881388 -0.7318436 -0.58755145 1.14679635 0.35269085 -0.08135275 0.0137928 0.4990397 0.21978335 -0.21536355 -0.0162769 -0.2657098 -0.3321246 0.4821593 -0.21864175 -0.2023723 
帮3_03_01 -0.0068141 0.62372065 -0.2379995 0.3957993 0.61662525 -1.01804175 0.5211188 0.6486463 0.17732865 0.26135925 -0.4961359 -0.07808485 0.8701165 -0.7408505 -0.173561 -0.83185915 -0.613528 0.80004905 -0.23642195 -0.7985098 
帮3_03_03 0.417741 -0.53952555 -0.08656955 0.3789245 -0.1008438 -1.061338 -0.1128814 0.2754786 0.47406275 0.2552372 -0.2816619 0.02591545 -0.1422972 -0.54118215 -0.1862905 -0.0622314 -0.46160895 0.3010908 -0.58056895 -0.0896579 
常1_05_01 0.47837055 0.18152385 -0.0851253 0.69860675 0.47624205 -0.49749765 -0.5485017 1.0837171 0.1169129 0.48688605 -0.479776 -0.2660618 0.119899 -0.5933491 -0.413468 0.1462089 0.0697275 -0.1071775 -0.4934561 0.18833145
幸1_07_02 -0.4198079 -0.47654455 -0.1110516 0.1697523 0.394191 -0.6761862 -0.5681192 0.44742835 -0.19788695 0.6224622 0.2361186 -0.0533883 0.03723015 -0.44107995 -0.2033733 0.41647045 -0.24544595 0.20516135 -0.07045655 0.26414175
广1_03_03 0.33772625 0.2807601 -0.05758435 -0.01172935 0.34408415 -0.75617425 0.10368775 0.6557996 -0.4334948 0.57005885 -0.12128255 -0.3398778 -0.27482345 0.09928295 0.41482935 -0.2229594 -0.26613955 0.23943095 0.13090575 -0.19483025
庆1_03_01 -0.0306638 -0.19019185 -0.29655515 -0.3787789 0.33411905 -0.62137015 -0.0191148 0.42299865 0.1503141 0.04844085 -0.21805635 -0.11785015 -0.2101021 -0.20301965 0.25318615 0.0019802 0.09561515 -0.2867773 -0.6198681 -0.12827845
序1_04_03 -0.3938434 0.17585355 0.2027766 0.94105645 0.4558867 -0.40869625 -0.06071805 0.6782433 -0.0847839 0.70553095 -0.01586905 -0.7327776 -0.06572425 -0.86310165 0.02106095 -0.51689225 -0.2924281 -0.08316115 -0.67216465 -0.0459088 
应2_03_01 -0.21485325 -0.18578995 -0.3837686 -0.6208513 0.29794745 -0.4761914 0.0227826 1.1118593 -0.22723135 0.13728765 0.65296205 -0.7219515 -0.5138673 0.00395755 0.1579462 0.26335645 -0.07568 0.15850995 0.0505442 -0.30934545
底1_08_01 0.7173634 0.0763957 -0.54488035 0.86389515 0.3986369 -1.0775423 0.03568745 0.9726551 0.47369925 0.70893435 -0.16151365 -0.58775355 -0.11013275 -0.3829271 0.09905215 -1.05886665 -0.3129001 0.1976455 -0.18795075 -0.00858855
店1_02_01 0.10891975 0.54624905 0.0179498 0.2635829 -0.14003455 -1.3577077 0.7052251 1.0353604 0.3050235 0.4474444 -0.77505325 -1.17738775 0.5030664 -0.36033345 0.3179967 -0.87876045 -0.47159625 0.32967895 -0.08743075 -0.15939475
庞1_03_01 -1.01670350e-01 7.68203500e-02 1.00262000e-02 2.44166500e-01 2.74903650e-01 -7.93001850e-01 -6.79896450e-01 3.37683750e-01 -2.91376900e-01 2.87221150e-01 -1.03918750e-01 -4.34028050e-01 -2.37100000e-04 -5.29794750e-01 -5.37375000e-01 -5.78541950e-01 2.38113950e-01 -1.31469550e-01 -8.04263850e-01 4.32962000e-02
度2_15_13 -0.0107252 -0.26964535 -0.3565672 -0.3014066 0.30364615 -0.60071925 0.004547 0.31061885 0.1116628 -0.0157413 -0.27023775 -0.04849975 -0.2409419 -0.2015255 0.2743933 0.02733745 0.0449574 -0.2849459 -0.77998785 -0.1648403 
庶1_03_02 0.4409373 -0.5804216 -0.31594355 -0.1595198 -0.37797235 -1.1438365 -0.11727465 0.3917572 0.5829002 0.37357395 -0.6917834 -0.19133925 0.21484065 -0.4248678 -0.2356455 0.02710005 -0.11079525 0.48079645 -0.852119 0.05406615
庸1_03_01 0.35804275 0.18842975 -0.1093096 0.1701001 0.1956059 -1.2409789 -0.57106245 0.6499909 -0.42162955 0.7577909 0.0660453 -0.84626465 -0.076668 -0.33860705 -0.53789845 -0.6129556 0.16371205 0.30164445 -0.41730225 0.0476633 
庸2_02_01 -0.05102505 -0.2665649 0.10817585 -0.2335175 0.5616294 -0.579236 -0.18214065 -0.10004215 -0.59541465 -0.10360285 -0.21330915 -0.3652389 -0.28855325 -0.08176105 -0.27427435 0.45886955 0.2658879 -0.1087219 -0.7413284 0.16912395
廉1_03_02 0.0048572 0.33025575 -0.06985805 -0.43646415 0.23713565 -0.82093225 0.3379158 0.4053326 -0.1643001 0.31322515 -0.3591321 -0.9192674 -0.07465795 0.15708925 0.106605 -0.4084679 -0.6167107 0.3895066 -0.3066831 0.17091475
廓1_02_01 -0.17032535 0.36606195 -0.2789268 0.2862222 0.21892505 -0.6313278 -0.14208485 0.66941485 -0.26057275 0.60063795 -0.14342275 -0.79962715 -0.3529874 -0.42349815 0.38759895 -0.01620375 0.3348512 0.04898205 -0.02864735 -0.15838715
建1_03_02 0.3812195 0.22729345 -0.25518875 -0.2786279 0.4982618 -0.98547985 0.97162365 0.12416975 -0.1228189 0.0644085 -0.19145565 -1.018627 0.00750885 -0.21970295 0.3259293 -0.2721156 -0.72544075 0.71499625 -0.40312225 -0.40904905
弄2_04_01 0.19364515 0.08353 -0.32762385 -0.03823675 0.95938435 -0.6752238 -0.09872345 -0.0887997 -0.23513165 -0.26220665 -0.0285369 -0.59791035 0.4118483 -0.2703654 -0.39543935 0.26581465 -0.48344405 -0.03613845 -0.4573666 -0.51055175
引1_10_01 0.2571316 0.19112275 -0.3573278 -0.33360375 0.3126973 -1.07684015 1.36138585 0.4170791 -0.3772349 -0.3433789 -0.06519275 -0.5587283 -0.2997709 -1.1851497 0.5435679 -0.3704481 0.236815 0.1937123 0.26785155 -0.22978875
引1_10_04 0.4812979 0.09505505 -0.21411955 -0.0114183 0.5007253 -1.0068408 0.08393555 0.08672055 -0.4399224 -0.27490975 -0.32401865 -0.3224088 0.1388091 -0.11639395 -0.2424801 -0.09023635 0.3112056 -0.0481233 -0.1914077 0.11720535
彩1_08_01 0.1497438 -0.38496355 -0.4266152 0.10332565 0.41776325 -0.70836395 0.4696815 0.5743944 -0.0057352 0.2093872 0.06030395 -0.1945348 -0.21567575 -0.24672395 -0.10499545 -0.23843045 0.1236885 -0.13408015 0.56131505 0.2108144 
彪1_03_01 4.59193600e-01 -7.06709500e-02 -5.40299550e-01 2.61794950e-01 4.19247700e-01 -1.15501060e+00 3.43522400e-01 -5.84410500e-02 1.68701600e-01 2.93916750e-01 2.88391000e-01 -5.91928000e-01 3.38221100e-01 4.06850000e-04 -4.75339500e-02 -7.01790450e-01 3.24554700e-01 7.91527500e-02 -4.67574400e-01 1.04236800e-01
影1_10_04 -0.34210585 -0.3566907 -0.42507605 0.2240638 0.3048415 -0.36567845 0.08204935 0.95693705 0.4136727 0.2431018 0.19072215 -0.1191607 -0.1235947 -0.09645435 -0.0525728 -0.4219539 0.09861915 0.5238135 0.21460285 0.02366905
役1_05_05 0.23019955 -0.01050315 -0.33435 0.050112 0.29203935 -0.66665605 0.69040545 0.35935025 0.049709 0.7834167 -0.1907867 0.14362795 -0.3982957 -0.6590928 -0.65587965 0.1149315 -0.18372345 0.3044511 -0.8003542 0.0235941 
律1_05_04 0.07802655 0.13075105 -0.76724465 0.163941 0.86926375 -0.1797416 0.67161455 1.1325762 -0.23886905 0.01349685 0.3372856 -0.41348965 -0.1008211 0.1670457 -0.30403365 0.2485337 0.56569665 -0.2587976 0.39488745 -0.05360485
徒1_05_02 0.5891471 -0.56592955 0.0461825 -0.2563395 0.2666835 -0.8395787 -0.3089171 0.28958075 -0.33239855 0.1136895 0.2811312 -0.9808058 -0.00413985 -0.30898825 -0.34831145 -0.18962655 -0.26648325 0.19907745 -0.14206065 -0.07402555
得1_07_05 0.04603075 0.3122641 -0.2601116 -0.18961635 0.7244134 -1.0040261 1.1649799 -0.0235872 -0.02506295 0.02633435 -0.47127925 -1.35244585 -0.43371985 -0.8687306 0.6386519 -0.2381253 -0.7094978 0.8729175 -0.7181407 -0.63807915
德1_04_01 8.21515850e-01 2.33236500e-02 6.32701850e-01 -1.50964650e-01 5.31830500e-01 -8.31721600e-01 -1.45172650e-01 1.23710860e+00 -4.66502650e-01 1.04955800e-01 5.83100000e-04 7.73565100e-01 -2.01854550e-01 1.25180950e-01 -3.44530600e-01 -5.31648400e-01 1.25527000e-02 6.99349000e-02 -2.03166200e-01 -3.81570000e-03
德1_04_03 0.2277942 -0.4701353 0.28697935 -0.29647625 0.55018095 -0.77701315 -0.33536065 0.5686594 -0.43603115 0.2329762 0.42473595 -0.0040962 0.2857382 -0.05022655 -0.4188723 0.2908018 -0.09340725 -0.05927535 -0.1868891 0.4284291 
心1_05_02 0.44781265 -0.94491045 0.38757235 -0.12438035 0.3437694 -0.6204888 -0.6270491 0.4105471 -0.2186964 -0.0102748 0.24543915 0.1670887 0.6334666 -0.02198265 -0.78834895 0.47446975 -0.331811 -0.0460412 -0.1045864 0.43155245
忏1_02_02 -0.1098274 -0.6361173 -0.3874145 0.60512515 0.09010375 -0.7086298 -0.1437836 0.88338975 0.0524742 0.437078 0.59986045 -0.51178915 -0.57045945 -0.2012915 -0.60688755 0.4651897 -0.87818425 0.23850985 -0.02221855 0.0272142 
性1_06_05 0.0784404 -0.56308935 0.14773515 0.16467595 0.4472504 -0.46303555 -0.07753295 0.9547546 0.4058393 0.0855151 -0.15659215 0.10169755 -0.2488758 -0.3476952 0.07801045 0.1604129 -0.1396278 0.1217662 0.1914983 0.3427279 
恋1_03_01 -0.4237303 -0.23662675 -0.0742845 -1.11934515 0.39761255 -0.88331115 -0.24626605 0.4391367 -1.0195596 0.0754037 0.11842975 -0.2749366 0.00275185 -0.39085125 -0.7931747 0.93417695 0.0427324 -0.2691579 -0.89834095 0.0315075 
恙1_01_01 0.00261755 -0.8615621 -0.32327045 -0.291589 0.7050641 -0.7953742 0.0616311 0.0326974 0.3049647 0.3565277 0.08828705 0.22398685 0.37634435 -0.034295 -0.28384335 -0.39063205 0.16306675 -0.5505657 -0.09399595 0.4643308 
悠2_01_01 0.7101199 -0.3059946 0.01775835 0.0080768 0.73403115 -0.5032274 -0.401574 0.51332035 -0.14854235 -0.6675351 -0.3744712 -0.2522786 0.2966166 -0.08889295 -0.29020575 1.40249995 0.30140095 0.2481885 -0.4188864 0.24553055
悬1_07_06 -0.19029265 -0.365497 -0.42830295 -0.73900745 0.1697502 -0.36609535 -0.44704835 1.2059425 -0.226921 -0.09122655 0.55147425 -0.60801385 -0.54474335 -0.24212215 0.3119233 0.42209765 0.2108549 0.1157069 0.09152775 -0.5703038 
情1_06_03 0.02757795 -0.5108771 0.07826445 -0.085964 0.35196445 -0.6449434 -0.23965085 0.50205415 0.16788195 -0.04352405 -0.06529595 0.91496315 -0.3129378 -0.21158445 -0.0162192 0.13092045 0.38175105 0.54504465 -0.05729725 0.2992346 
惯1_02_02 0.2913423 -0.4853039 0.2281368 -0.0851708 0.28249585 -0.3592962 0.2090949 0.5860154 -0.17497245 0.1688414 -0.08568515 -0.87707035 -0.19475455 -0.1383696 0.3031053 0.2592886 -0.2768361 -0.21380585 -0.75085515 0.2085349 
想1_04_01 -0.18725105 -0.15999565 -0.3085438 -0.31270555 0.2855852 -0.45451155 -0.07617955 0.8082429 -0.2415656 0.0470567 0.32551015 -0.58269975 -0.4801516 0.12224725 0.18935525 0.1150137 -0.1185558 0.0191201 -0.14565025 -0.25063175
愣1_03_02 0.60684685 0.06740145 -0.78850835 -0.188599 -0.09637435 -0.57048595 0.3895765 0.23121885 -0.64778645 1.3300828 0.0576408 -0.9995098 0.3646394 -0.607843 -0.8093994 0.3388221 0.5387387 0.15492065 -0.4668452 0.55828335
愿1_01_01 0.7113487 0.0553568 -0.7140418 -0.0884134 -0.07264485 -0.5640628 0.27721245 0.2722129 -0.5867806 1.1347214 -0.07458005 -0.81119505 0.1951 -0.2790844 -0.8478829 0.27459795 0.50530575 0.1194901 -0.52066975 0.5378908 
愿2_04_04 0.2813676 -0.79898915 0.58858745 -0.28580155 0.6111293 -0.70829205 -0.68145995 0.5233402 -0.3298519 0.0032352 0.3147567 0.2077535 0.56964265 0.046818 -0.55268585 0.3890431 -0.20209175 -0.0195741 0.01247345 0.42330275
成1_10_06 5.52607150e-01 -7.47419000e-01 6.01400000e-04 -2.41599800e-01 1.89886000e-01 -8.37048500e-01 -3.32270050e-01 2.92816850e-01 -4.07733800e-01 9.23610000e-03 2.32217150e-01 -9.77451900e-01 2.20180500e-02 -3.11845650e-01 -4.25255550e-01 -2.14813250e-01 -3.28112500e-01 3.54820350e-01 -2.85389350e-01 -1.53299300e-01
戗1_03_02 -0.142481 -0.1512704 -0.6735258 0.6882361 0.3295346 -0.7303362 0.73413045 0.66153875 0.45438535 0.0682002 0.0782209 -0.0803284 0.15409045 -0.14179815 0.3475438 -0.63722355 -0.05014335 -0.0478858 -0.0115345 -0.03510645
手1_07_01 0.8439998 -0.05886885 -0.24758555 0.4456349 0.7186225 -0.9688628 0.6394703 0.52965105 -0.19284785 -0.41905905 0.11451115 0.0562561 0.48812585 -0.3696869 -0.21300925 -0.43151825 -0.3819593 0.2969159 -0.25176365 -0.00917665
才1_03_01 0.5800357 -0.3380046 0.66931375 0.15080985 0.48273565 -0.791186 0.06691385 1.19621425 -0.0711871 -0.19376155 -0.2782219 0.3971367 -0.41244775 0.27302305 -0.72408835 -0.29654485 -0.63945335 0.40861755 -0.8942068 0.1837699 
扒1_04_03 0.5874216 -0.11994055 -0.51402525 -0.53967785 0.4292763 -0.6465567 0.13941245 0.6464198 0.2752729 -0.26098855 -0.13665585 0.20964965 -0.35823095 0.0789898 -0.0620035 0.53392615 0.08034275 -0.03366335 -1.0852402 -0.1746662 
扞2_01_01 0.18186315 -0.5587841 0.1765182 -0.20837045 0.3096632 -0.33025735 0.22684985 0.5723388 -0.11703475 0.10705015 -0.07672195 -0.8805555 -0.09372115 -0.1660169 0.29310035 0.325712 -0.3503438 -0.18450455 -0.825055 0.2721132 
扰1_03_01 0.44359125 -0.2027897 -0.22513955 -0.1465405 0.144085 -0.5902282 0.07417445 0.47386135 -0.4335217 0.01395775 -0.12468995 -0.1867672 0.08725245 -0.0537491 -0.18834205 0.44781105 0.22266545 0.0624666 -0.45890965 0.1697344 
报1_09_01 -0.1798542 -0.19918575 -0.306054 -0.50576505 0.27562075 -0.4741517 0.0966599 0.9091282 -0.23643205 0.17692415 0.4658049 -0.6849789 -0.5076164 0.0553741 0.13643755 0.17173065 -0.2152325 -0.04789235 -0.10557685 -0.34498115
报1_09_03 0.2872545 0.266219 -0.188836 -0.06918835 0.27676885 -0.57037575 0.2080857 0.72349525 -0.59724275 -0.3003219 0.18454325 -0.5090912 -0.4672357 0.22668825 -0.1926863 -0.11206925 0.7326173 0.10206365 -0.1149248 0.20747315
报1_09_07 -0.16472455 -0.7227571 -0.38746735 0.5186247 -0.0190204 -0.6990307 -0.26871635 0.94806495 0.09935825 0.38922555 0.58188665 -0.4469311 -0.53786625 -0.27816355 -0.5376327 0.4782033 -0.83737995 0.3089765 -0.0347121 -0.01025345
抱1_06_02 0.4437941 0.12093685 -0.1322621 -0.344301 0.5978269 -0.5232326 0.03587005 0.5135966 -0.1721423 -0.00580245 -0.1320808 -0.41495935 -0.43383345 0.3318596 -0.29655585 0.3893141 0.11978615 0.25078815 0.04685815 0.48042295
拜1_07_01 0.2003454 -0.03251 -0.31607065 -0.32830875 0.2130207 -0.78705915 0.1386508 0.29498385 -0.33414335 -0.0885005 0.00127315 -0.33690355 -0.30436775 -0.2798009 -0.04233425 0.13118595 -0.4964276 0.25328765 -1.1267791 -0.2645487 
拥1_06_03 0.77526195 0.10308365 -0.0824593 -0.1494663 0.70791805 -1.03966845 0.38480535 0.26442205 -0.0646946 0.00974385 -0.49203575 -0.42571225 0.1069573 -0.04540575 -0.1947505 -0.52057535 0.07281005 0.46015125 -0.53724615 -0.5538099 
指1_07_05 0.2021895 -0.46205705 0.201348 -0.18402365 0.325902 -0.2769407 0.24265715 0.59176995 -0.1748504 0.05878495 0.03433615 -0.75799255 -0.1610924 -0.07662995 0.256423 0.37325605 -0.20817075 -0.082434 -0.77879535 0.2707312 
挈1_02_02 0.39148765 -0.1281702 -0.37643455 -0.4279608 0.25913065 -0.7109433 0.03134265 0.58616555 0.1341958 -0.13122855 -0.24991475 0.06517815 -0.1861244 0.04298285 0.08943515 0.34363035 0.1869421 -0.10552255 -0.78053855 -0.15227985
据1_05_04 0.52717945 -0.40276155 0.08315695 0.60106555 0.22594155 -0.46582065 0.14053385 0.6497729 0.0207348 0.14794985 -0.06769635 0.2249312 -0.2424616 -0.22171815 -0.0405521 0.37406565 -0.1733172 0.4982125 -0.1464028 0.587775 
捷2_01_01 0.26179815 0.37565855 -0.7124732 -0.538945 0.76080435 -0.56325845 0.7283695 0.3689743 0.06846225 0.41024655 -0.1640811 -0.1546058 -0.42403045 -0.25787815 -0.4469675 0.26628885 -0.06731125 -0.38890745 -0.5106613 -0.0081362 
掉2_03_03 0.53177295 -0.006211 -0.2140387 -0.18524035 0.20344655 -0.5234898 0.2983483 0.953199 -0.23015195 -0.0849287 -0.0984449 0.0436406 -0.61778155 0.253388 0.23285635 0.07569365 0.2188705 0.4149924 -0.1948788 0.3053566 
掊2_02_01 0.22420885 -0.47392605 -0.3285582 0.1583297 0.20658645 -0.2432867 1.33575995 0.59284105 -0.7072125 -0.43935545 0.2636026 -1.1871864 0.2516957 -1.08032135 0.6835892 -0.32879445 -0.2855198 0.3837734 -0.3483002 -0.5543638 
推1_10_09 -0.4073655 -0.1607172 0.17399155 -0.97547545 0.4422081 -0.8317623 -0.3333052 0.4526871 -0.9003795 0.00388125 0.1723277 -0.29839115 0.00496585 -0.09359095 -0.5992834 0.8240693 0.1327499 -0.28929615 -0.8657313 0.3088649 
揆1_04_02 0.4833184 -0.51447595 0.32495365 0.50227165 -0.1147344 -0.4711957 0.1025666 0.73762935 -0.19541055 0.30633795 -0.23057575 -0.63551725 0.17928225 -0.54579445 -0.0792207 0.4122654 -0.57794 0.64082945 -0.57027915 0.38987075
提2_10_02 0.3347624 0.0464338 -0.326649 -0.15794245 0.40532665 -1.0417005 1.0019545 0.04907125 -0.2281591 0.179515 -0.18032635 -0.881328 -0.05377655 0.06035405 0.41595335 -0.2817643 -0.54649885 0.4027696 -0.3228734 -0.10470115
摸1_04_02 0.3935398 0.0986418 -0.28768135 -0.21961045 0.5072815 -1.05987465 1.1912567 -0.0312983 -0.2330546 0.24180275 -0.1379309 -0.96131835 -0.01401815 0.08150795 0.36485695 -0.2792566 -0.71524125 0.46292625 -0.38294295 -0.18916245
收1_08_01 -0.32476175 -0.22317405 -0.4587932 -0.54228915 0.6761393 -1.2847381 0.3593351 -0.46378835 -0.98427395 -0.1765276 -0.00985265 -0.31291305 -0.1997078 -0.3727332 0.4339496 0.30247315 0.05420715 -0.11949115 -0.02645255 -0.54408075
政1_04_01 -0.0934232 -0.3186131 -0.12727185 0.58498245 0.22963325 -0.6538614 0.16465135 0.9414867 0.4310156 0.2402189 -0.0758815 0.0425018 -0.27984215 -0.6174812 -0.4652093 -0.1254889 -0.47228 0.0672991 -0.3075198 0.3372438 
敌1_04_01 -0.16729275 -0.31744915 0.02214005 0.09156095 0.3898748 -0.49449775 -0.0863618 0.39212205 -0.2186833 0.30440405 0.1281883 -0.711728 0.3901149 -0.5859825 -0.1568859 -0.05154825 -0.50735355 0.15899185 -0.58190265 0.166385 
散1_03_01 0.041454 0.0846028 -0.12047605 -0.10947105 0.82355925 -0.29924015 0.5504873 0.00643355 -0.50812585 0.14768705 -0.4477331 -0.3027048 -0.16162145 -0.65178405 -0.20606535 -0.23455145 -0.27206965 -0.16357215 0.0933346 -0.174465 
数2_05_01 0.56163965 -0.24333405 -0.10308275 0.47993375 0.2899465 -0.356655 -0.17819525 1.08009145 0.1142787 0.07449425 -0.40456995 -0.1684109 -0.0945424 -0.46008575 0.4247957 -0.08471935 -0.29626895 0.40707635 -0.15904215 0.141161 
数2_05_02 0.33644445 0.10881305 0.4101995 0.17570055 0.78213525 -0.9957885 -0.01156355 0.82817005 -0.09324655 1.11016935 -0.015977 -0.5907186 -0.2065218 -0.3537884 -0.29842435 -0.02610815 -0.85357995 -0.13369345 -0.3106944 0.2717895 
文1_14_01 -0.161082 -0.57777835 -0.4837579 0.35469485 0.02082005 -0.5910903 -0.35755215 0.83537855 0.07308255 0.6043454 0.4429023 -0.51015635 -0.4591703 -0.40814655 -0.50282635 0.24467635 -0.55735935 0.16290315 -0.15039675 -0.1764362 
文1_14_03 -0.1397201 -0.4844002 -0.31536275 0.7483433 0.1148608 -0.7370482 -0.097029 1.08642235 0.0994648 0.42421615 0.4422906 -0.4675179 -0.6235381 -0.1700833 -0.7273231 0.4055675 -1.0200188 0.32626535 0.00289585 0.0440886 
文1_14_08 -0.10476205 -0.3457683 -0.02111345 0.03282515 0.2324455 -0.5665934 0.01452045 0.42130535 -0.2894471 0.41120005 0.02650625 -0.85341955 0.3600328 -0.6785618 -0.2863867 -0.1429699 -0.7341144 0.23432775 -0.67923585 0.0016882 
文1_14_12 0.0878197 -0.21042435 -0.61553165 -0.6037538 0.3524692 -0.7931875 0.4305709 0.1261538 -0.39162025 0.20870695 -0.14213275 -0.2661968 0.0776604 -0.4504759 0.1359909 -0.0545059 0.2513183 0.36863375 -0.5446444 -0.1016858 
斗1_06_01 0.25584375 0.3733753 -0.6354205 -0.44861025 0.6173248 -0.5966784 0.5468032 0.4575243 0.11416015 0.3466808 -0.15213215 -0.19232825 -0.38592345 -0.16085765 -0.39862585 0.13246265 0.0562764 -0.2811368 -0.421267 0.13322755
斗1_06_03 -0.014849 -0.20735165 -0.39336895 -0.2488471 0.0894646 -0.65153645 0.67623385 0.09663455 -0.66378575 0.2255957 -0.1153679 -0.5835165 0.657833 -0.82209085 -0.1807455 0.3032514 -0.09677555 0.20750705 -0.4051606 0.18261445
斗1_06_05 0.238265 0.41620125 -0.6256159 0.1939443 0.93284115 -0.63819445 0.23061005 0.3661 -0.38913915 0.2053765 -0.1479218 -1.0164392 -0.0259141 -0.36503065 0.41614995 0.2013293 -0.00919975 -0.3540235 0.0255455 -0.1860169 
料2_04_01 -0.0288074 -0.35493965 -0.55207935 0.6577279 0.3395244 -0.7777451 0.60738055 0.70073535 0.1671678 0.3396926 0.30938685 -0.45674095 -0.0458498 -0.38120765 0.07167165 -0.81630965 -0.33431735 -0.17677995 0.22919575 -0.1241324 
新1_08_02 0.39644325 -0.27455855 -0.2451312 -0.06592305 -0.24762805 -1.09621115 -0.12016935 0.4452377 -0.11016865 0.15136825 -0.25723315 0.06081925 -1.2399188 -0.36601935 -0.33171505 -0.4679521 -0.274787 0.2856586 -0.6083119 -0.2197362 
旅1_03_01 0.4321576 -0.04503585 -0.5041684 -0.20916015 0.7099948 -0.9349865 1.120878 0.42363565 0.33292235 0.1204978 -0.83046455 -0.50949635 0.1335959 -0.26958295 0.37996855 -0.7816026 -0.1410582 0.11899425 -0.4206275 -0.4592659 
旅2_03_03 0.30576015 0.25881715 0.1705883 -0.06995225 0.30038615 -0.94386775 0.37962115 0.56476405 0.08979305 0.09352025 -0.6700626 -0.33294875 0.03698035 -0.1965288 0.47188585 0.08187765 -0.3230975 -0.3398134 -0.7319381 0.4444459 
日1_09_01 0.6747093 0.0155225 -0.41932845 0.25471375 0.1006642 -1.39512825 0.34159265 0.18787275 0.16234535 0.7885344 -0.20609935 -0.6100873 -0.71776605 -0.64150845 -0.3313536 -0.4861941 -0.07406905 -0.07370335 -0.5483803 0.26918695
旨1_01_01 -0.162485 0.23730755 -0.24693705 -0.04958535 0.34693415 -1.3694641 0.5883342 0.2862352 -0.0099126 -0.07652325 0.22036475 -0.68318405 0.3398596 -0.09428235 0.2811258 -0.6493223 -0.0535779 0.00186145 -0.19205445 -0.28001225
明1_09_03 -0.48000485 -0.0790089 0.0541613 -0.46297455 0.79411845 -0.63225605 -0.23458325 0.43739805 -0.19125405 0.792174 -0.33229715 -0.4165047 -0.26501005 0.2320598 -0.34154435 0.2787252 0.0857631 -0.3625637 0.02026505 0.2671925 
春1_05_03 1.73619500e-01 -8.08760000e-01 5.19873350e-01 -3.29925500e-01 6.12688450e-01 -6.97135250e-01 -5.37367950e-01 5.11403700e-01 -3.99612750e-01 7.73600000e-03 3.43872950e-01 2.87148000e-01 4.89709350e-01 1.03909650e-01 -5.31392900e-01 4.72963000e-01 -1.69632550e-01 -2.09850000e-04 -7.55920500e-02 4.17365450e-01
晚1_07_03 -0.1143664 0.5745779 -0.0591861 -0.11850585 0.67220145 -1.2645384 -0.35591375 0.1953182 -0.56464745 0.33687155 -0.60697755 -0.7682555 0.11016175 0.3309026 -0.41206455 -0.24942145 -0.47040115 0.26847045 -0.1865331 0.01991085
暑1_01_01 0.27290515 -0.0118152 -0.31196105 -0.0725961 0.21406745 -1.1652191 0.39790945 0.162007 -0.18377035 0.10626005 -0.19812745 -0.6109009 0.1248973 0.0738595 -0.63074885 -0.40360195 0.30684195 0.0430899 -0.6233174 0.1670362 
曜1_03_03 0.74869835 0.1620344 -0.40434195 0.2982474 0.0826586 -1.50058915 0.21781835 0.29220495 0.1792943 0.78572355 -0.2805511 -0.6824182 -0.67329605 -0.67351925 -0.39118535 -0.5592727 -0.10260445 -0.08343985 -0.46957425 0.30532945
替1_02_01 0.56453795 -0.13169055 -0.3950502 -0.4251767 0.3674902 -0.74270795 -0.0072216 0.7069945 0.1616218 -0.12338345 -0.24220595 0.04949235 -0.3631446 0.0568418 0.06957525 0.38855225 0.11337455 -0.12948085 -0.95698785 -0.1454403 
有2_10_09 0.2540248 -0.64215115 -0.2312574 -0.09737745 0.845139 -0.6686109 -0.25122965 0.0288452 0.33797125 0.46120145 -0.8188853 -0.82456015 0.2911819 -0.5736954 -0.5626049 -0.7084439 -0.7121501 0.48222965 -1.6819956 -0.10871885
望1_09_04 0.7498305 -0.45567425 0.50442125 -0.0793408 0.95908135 -0.7090235 -0.1275669 1.42028335 -0.1307844 0.46308485 -0.25085195 0.6719634 -0.642406 0.1254453 -0.7933212 -0.1174191 -0.13349925 0.53235895 -1.17040975 -0.0348918 
木1_07_01 -0.32174515 -0.0907819 -0.6888579 0.54474595 0.4137906 -1.1357972 0.48746915 0.548146 0.05990755 0.43628935 0.37505515 0.1993849 -0.49369385 -0.06632375 0.0111575 -1.1617026 0.0976094 0.02808605 0.24511395 0.27274915
本1_12_04 0.566675 -0.4649647 0.1218861 0.6443125 0.22804675 -0.4738809 0.1480956 0.5907594 0.0074883 0.16869085 -0.08263115 0.1597991 -0.2723949 -0.1556585 -0.0251844 0.3896872 -0.206629 0.5425332 -0.15815775 0.63172375
机1_09_01 -0.2476528 -0.0988366 -0.5273681 0.4299751 0.32867275 -0.8193327 0.50585475 0.75378205 0.23947875 -0.1240845 0.28129 -0.42804145 0.4175553 -0.3563447 0.4933286 -0.1979851 -0.01126005 -0.08572555 0.10776125 0.018202 
机1_09_04 0.10762455 -0.76590215 0.15275175 0.0710446 0.75516765 -0.4700327 -0.413362 0.34989675 0.4083433 0.3044981 -0.06641155 0.2911197 -0.15501145 -0.8584092 -0.1985804 0.48604505 0.46972805 -0.39059515 -0.10005605 0.1370657 
杀1_06_02 0.26831165 0.4608933 -0.80307285 -0.5211916 0.74629355 -0.67273545 0.7240702 0.4816347 0.0758305 0.39171155 -0.11532645 -0.1401814 -0.4622859 -0.3344298 -0.4055092 0.20321195 -0.0517332 -0.2495186 -0.47755945 -0.0143704 
权1_08_04 0.43917635 -0.42834265 0.1299997 0.2576012 -0.0530951 -0.4349161 0.0877308 0.7885426 -0.18905785 0.4019831 -0.0702671 -0.19275875 0.12036905 -0.5050028 -0.1577327 0.46301835 -0.29209875 0.47997565 -0.4796608 0.34264755
杖1_02_02 -0.30399925 -0.13126855 -0.6594509 0.48185105 0.2041946 -0.80664405 0.7864125 0.70859525 0.3239751 -0.24083095 0.26576335 -0.52334925 0.3920769 -0.5008224 0.5418209 -0.17053785 -0.0913405 -0.1578916 -0.02265605 -0.08493645
来2_13_02 0.3320199 -0.12854655 -0.1158749 0.0657732 0.57425355 -0.6586024 -0.06441355 0.17071645 0.1191557 0.18343385 -0.6530758 -0.49492285 -0.17837585 -0.2880644 -0.183571 -0.0546782 0.3160746 0.130076 -0.3083403 -0.15748945
杯1_03_01 0.45288115 -0.2231681 -0.44626235 0.49207065 0.51739765 -1.03058535 0.6437609 0.2342722 0.0485982 0.2612751 0.5462787 -0.1645891 0.6073515 -0.08318865 0.16819265 -0.0329275 0.11115195 0.09352915 0.43977965 0.13414125
松2_06_01 0.2200749 0.41662745 -0.46395505 -0.24311015 0.45342965 -0.8597564 0.4292022 0.1872928 -0.8851656 0.3324086 0.23432215 -0.278501 -0.32925505 0.38728535 -0.36531255 0.0149927 0.56569905 0.1284666 -0.4313622 0.42318825
板1_08_07 0.05529995 0.37687965 -0.56134465 0.1937177 0.13692035 -1.0763184 0.35352845 0.60210855 -0.0060202 0.54915335 0.25130405 -0.8552796 0.23760765 -0.0483248 -0.4171985 -0.7993232 0.5889451 0.12832135 0.0381604 -0.2911971 
构1_04_01 -0.21376485 -0.0922797 -0.25733265 -0.24104215 0.3281329 -0.45052615 -0.13750285 0.7256452 -0.22277575 0.103017 0.29597085 -0.3827925 -0.47937245 0.1770299 0.15641175 0.11217705 -0.08280985 0.02569335 -0.20744845 -0.15767225
果1_03_02 0.1310572 -0.8395377 0.1465919 0.16628325 0.70418725 -0.4271518 -0.27403005 0.32345995 0.35546955 0.35610305 -0.10660535 0.24236275 -0.14337465 -0.6661849 -0.20801055 0.3831827 0.37660745 -0.31458005 -0.1679093 0.21702165
枯1_06_01 -0.1040854 -0.1145307 -0.31897755 -0.07726285 0.52384745 -1.1776542 0.5760568 -0.2810354 -0.6137498 0.3395519 0.7108862 -0.7975851 -0.31162565 0.0477993 -0.58797625 -0.81100285 0.6141885 0.459884 -0.2761044 0.7093129 
架1_07_06 0.2537226 -0.59433575 -0.3500243 -0.24998455 0.4793074 -0.5750226 -0.0962312 0.61975355 -0.53560595 0.1788694 -0.0826068 0.40764425 0.06493405 -0.3207795 -0.2403753 0.48255525 -0.07622315 0.16782845 0.1895947 0.26081005
柄1_06_05 0.6774412 0.0189326 0.15043935 0.71726785 0.5024368 -0.63833075 0.22201255 0.74527995 0.02547485 -0.0543348 -0.15687915 -0.0381772 -0.14014175 -0.5337202 -0.02981985 -0.0190332 -0.703782 0.69393955 0.0852687 0.09595915
柜1_02_01 0.20330285 0.00316875 -0.1389793 0.905142 0.2452907 -1.00717745 0.5866143 0.69475305 0.58374245 0.33813095 -0.35565585 -0.29028945 -0.05315065 -0.29866815 0.2631157 -0.6582227 -0.8374163 0.3347783 -0.0567284 -0.35181145
柬1_01_01 -0.32873835 -0.31172735 -0.43209485 0.2700995 0.3360408 -0.3856363 0.1307645 0.8496214 0.45294065 0.2433989 0.21827885 -0.0595156 -0.18745615 -0.1483057 -0.0179111 -0.4002759 0.1249799 0.5362685 0.1482138 0.04734855
柱1_03_01 -0.1444833 -0.1307199 -0.73701125 0.76902335 0.36240215 -0.765247 0.84760565 0.58069165 0.5523338 0.09782395 0.09252225 -0.0101423 0.0890602 -0.14392925 0.39165235 -0.6583808 -0.058414 -0.0724815 -0.10281815 -0.04239455
标1_10_03 -0.15920395 -0.6488172 -0.32867445 0.6482265 0.02578285 -0.70719725 -0.14715135 1.0193839 0.13286645 0.40606415 0.45950305 -0.51105265 -0.6746635 -0.19739105 -0.6236103 0.3951516 -0.93890165 0.29431055 -0.03524795 0.0234607 
标1_10_05 -0.15523975 -0.2738407 -0.43544875 -0.78198915 0.2202168 -0.3621953 -0.2735061 1.15971265 -0.25580295 -0.05884505 0.62783375 -0.6128401 -0.54131975 -0.14258935 0.248444 0.41934415 0.16033915 0.1190086 0.063015 -0.51153145
株1_03_02 7.69050000e-04 -2.02519350e-01 -1.16438700e-01 3.04480000e-01 8.46143600e-01 -1.23236740e+00 1.20649755e+00 1.08748050e-01 3.47376350e-01 -1.07828550e-01 -2.53688500e-02 -3.66210700e-01 4.30022050e-01 -2.33775800e-01 -9.78538000e-02 -7.46420900e-01 -1.46239050e-01 7.47566000e-02 -2.46405400e-01 -1.92409350e-01
样1_05_04 0.42828025 0.1002003 -0.19596445 0.7618158 -0.48345015 -1.16576175 0.5011765 0.9700905 0.7738922 0.26956005 -0.4078756 -0.3436502 0.18133815 -0.0873549 0.40363115 0.13247725 -0.1293367 0.307518 -0.55238185 0.2446103 
框2_03_02 -0.2151436 -0.2220422 -0.2481948 -0.3437929 0.26946835 -0.4774706 0.11015065 0.83657435 -0.2513765 0.1503792 0.3776689 -0.5995018 -0.53850725 0.13802005 0.15579925 0.1253953 -0.21731035 -0.01229165 -0.1080615 -0.271607 
档1_06_02 -0.31411135 -0.31476895 -0.39775165 0.2335627 0.2969059 -0.383673 0.09941285 1.01643915 0.4103575 0.27809825 0.21481735 -0.0679458 -0.0835298 -0.1194191 -0.0500181 -0.4285874 0.0580089 0.5280072 0.1946439 -0.01605105
楚1_02_01 0.3315748 -0.22497825 0.534237 -0.027343 -0.126025 -1.27584065 -0.43836385 -0.20750825 -0.640469 -0.2032499 -0.33277105 -1.21185165 -0.0823436 0.22380895 -0.84816525 -0.49845775 0.1221805 0.01916475 -0.4739779 0.67243415
槁1_01_01 -0.0957249 -0.265741 -0.2836845 -0.104764 0.91994255 -1.2108215 0.74474955 -0.6126153 -0.940468 0.30413925 0.93530555 -1.06067475 -0.2307517 -0.15760105 -0.8166723 -0.87618635 0.5621793 0.4135584 -0.5273552 0.68941715
橙1_03_03 -0.22466725 -0.434822 -0.44653475 0.51159595 0.37779665 -1.0736799 0.08870425 0.2513001 -0.20388035 0.83596615 0.500611 -0.99827055 -0.4151392 -0.20211915 -0.26378665 -1.30952085 0.26291895 0.120524 0.3014407 0.0361492 
櫽1_02_02 0.81379105 -0.25271965 0.1538498 0.0861699 -0.1924484 -0.99782945 0.40624115 0.40708925 -0.22410895 0.3283663 -0.29785955 -0.63875605 -0.38098945 -0.20180265 0.25860435 -0.57852965 0.09334615 0.00515295 -0.2835012 -0.4625096 
欲1_04_01 0.19913785 -0.6694849 0.4503296 -0.29616705 0.5486436 -0.7157218 -0.469632 0.4584115 -0.36967175 0.14102435 0.2498182 0.07629995 0.33252385 0.02682185 -0.38271865 0.2568472 -0.1703495 -0.0694675 -0.13746785 0.3960804 
正1_19_06 0.904963 0.26815365 0.2002756 1.0333314 0.466343 -0.9503827 0.14751795 0.421418 -0.08703845 0.923613 -0.12713295 -1.13791875 -0.4412391 -0.322426 -0.01105185 0.2588293 -0.8696597 -0.38337985 -0.04448935 0.5163981 
步1_08_02 0.1327857 -0.7868203 0.09191835 0.1343559 0.6287565 -0.47372675 -0.19580695 0.31651075 0.2923461 0.3839135 -0.09876085 0.1899434 -0.1605343 -0.53432785 -0.2296105 0.31037525 0.30794845 -0.36622005 -0.22900365 0.2688125 
毓1_02_01 0.6365681 -0.19131065 -0.2489997 -0.0162844 0.4977458 -0.799253 0.4860334 0.09038315 -0.33793065 0.2827892 -0.0798063 -0.3577413 0.01140225 -0.2471119 0.24779045 -0.4038083 -0.32425315 0.4332494 -0.45180155 0.39673525
比1_10_01 0.0242375 0.0408091 -0.0778819 -0.29502685 0.36420115 -0.45542485 0.4738771 0.66138655 -0.07391925 0.27729835 -0.1964996 -0.3924076 -0.3435658 -0.26631045 0.26600265 0.13513705 -0.1869021 -0.2784213 -0.25077285 0.0496861 
气1_14_01 0.3395325 -0.2070644 -1.1656853 0.6557307 0.51667145 -1.3704628 1.20875425 0.56637645 0.2636927 -0.25983375 -0.19351565 -0.6496387 -0.1140347 -0.5504772 0.3752479 -0.91506285 0.2733821 -0.1000147 -0.09630245 -0.2620734 
气1_14_02 -0.4702107 0.40727835 -0.40743275 0.27024685 0.13707945 -1.6966996 0.5350098 0.49958575 0.0967602 -0.01631875 0.15236435 -0.6432998 0.10005905 -0.18121225 0.3177354 -1.0952204 -0.21530875 0.1915508 0.38576735 -0.1934456 
气1_14_13 -0.07071725 -1.3144595 -0.1397683 -0.3625343 0.6812426 -0.88246075 0.22269185 0.0093033 0.43311195 0.1901325 0.0158009 0.28249305 0.60011975 0.1960369 -0.35020235 -0.47492585 0.0911514 -0.59533935 0.07833185 0.64457995
氛1_01_01 0.0730189 0.52652925 -0.3211259 0.09083485 0.73184905 -0.9487738 0.4950658 0.4081351 0.16017105 0.28859505 -0.36811965 -1.46477515 0.25672025 -0.35982605 0.57326085 -0.4218684 -0.34229365 0.1829976 0.2518311 0.24513935
水1_07_01 -0.0852268 0.00337545 -0.6550322 0.245421 0.30700625 -0.94694305 0.74922805 0.165915 0.25592085 0.14767685 -0.08358305 -0.42722235 0.2727892 -0.3524552 -0.1254895 -0.8179842 0.44787275 0.2709512 -0.31049255 0.1323042 
汽1_02_01 -0.5134092 0.3989678 -0.42720675 0.18458075 0.09581105 -1.6991328 0.60391155 0.440541 -0.0616195 -0.0499223 0.1041837 -0.68783295 0.2041326 -0.2058591 0.3395042 -1.01189015 -0.07877195 0.08476165 0.4217821 -0.1037994 
沁1_03_01 -0.1567563 -0.31507235 -0.0793723 -0.80923425 0.2921271 -0.68155175 1.0401298 0.32333345 -0.16360835 0.18723355 -0.66914785 -0.6016231 -0.1055536 -0.06365625 0.0243497 -0.4146382 -0.0762431 0.82707375 -0.23733875 0.05294405
沃1_03_01 -0.2349185 -0.42132715 -0.6629874 -0.1623326 0.29598075 -0.8212519 1.01360035 0.3120952 0.05474535 -0.4416717 0.10528595 -0.33191635 0.22472315 -0.0205454 1.0895494 -0.4016158 0.5911879 0.15758525 -0.43130145 -0.1411592 
沄2_01_01 0.0553316 0.3276682 -0.64073 0.86819995 0.25654245 -0.7678221 0.5471998 0.6186883 -0.15396245 0.16210615 0.14657705 -0.0932833 0.2331798 0.12468305 0.26159925 -0.33747095 0.0975009 0.17500495 0.1338015 -0.0326779 
沙1_03_01 -0.1713438 -0.3868298 -0.8869682 0.666495 0.509883 -1.1367313 1.12448775 0.92001905 0.3431613 0.333917 0.3492056 -0.64163885 -0.3975515 -0.42940635 0.0460721 -1.2548328 0.07333845 -0.12438895 0.55362435 -0.2901975 
沥1_02_02 -0.1345934 -0.1069073 -0.63114575 0.2732246 0.3645271 -0.96025165 0.7401203 0.06924055 0.3314957 0.2672448 -0.0193943 -0.4950382 0.28719335 -0.28746065 -0.06589595 -0.7645349 0.58536085 0.1698358 -0.28706935 0.25303765
油1_05_01 0.0176826 -0.2382414 -0.6523251 0.3842155 0.74091365 -1.41072785 0.6928963 0.15453065 -0.11062675 -0.00363735 0.48350695 -0.7587972 0.6693023 -0.3895146 -0.3419934 -0.9003652 -0.0633667 0.4438986 0.4633344 -0.1446157 
治1_08_01 0.58330185 0.0089346 -0.36660215 -0.4091926 0.39523905 -0.77171595 0.0076116 0.70844375 0.1752016 -0.1150745 -0.18733025 0.1193469 -0.39570735 0.04701875 0.10665145 0.3985659 0.2100453 -0.149562 -0.99631635 -0.22146685
治1_08_03 0.2443129 -0.1889116 -0.44225775 0.395829 0.2445551 -0.9351922 0.5294127 0.33967545 0.490915 0.1811626 -0.1745264 0.0719921 -0.41638445 -0.3328246 -0.4931175 -0.24013875 -0.2127087 0.26057675 -0.4303936 0.1014472 
泡4_04_01 -0.01483195 -0.3266829 -0.17583875 0.48465335 0.2632634 -1.1200634 1.3683447 0.24689365 -0.0927416 -0.2369116 0.1192575 -0.7374182 0.40743925 -0.330551 0.0579166 -0.94887445 -0.4143128 0.2883488 -0.3640656 -0.05266355
